0,-0.0066878498,0.06979868,0.101754636,-0.07460797,-0.10679048,0.11971852,0.0778096,-0.08178079,-0.06915763,-0.0144406855,0.08878681,-0.044101477,-0.07661733,0.099332094,0.020175546,-0.07857716,-0.061053663,0.037134558,-0.074833125,-0.06735304,-0.036565483,0.04059151,0.10646823,-0.057924837,0.02360931,0.0029625893,0.12250513,0.030180931,-0.050112188,0.02292189,-0.051656187,0.05277607,-0.02021727,-0.12018064,0.043298364,0.1027278,0.03515157,0.075543225,0.12329483,0.093996435,-0.0814091,-0.0670059,0.023932636,-0.024573743,0.012041479,-0.0921174,0.01174432,-0.12084627,-0.0879063,-0.037396878,0.11660516,0.05401677,0.11678743,-0.0208143,0.03914866,-0.08929166,-0.03527233,0.015539348,0.038366586,0.07023767,-0.081154495,0.023386896,-0.0444476,0.005859405,0.039304435,-0.017089665,0.028196096,0.041521847,-0.022829115,0.033706248,0.03412801,0.0053172708,0.029226303,-0.081638455,0.009243935,0.049254805,-0.06929153,0.0022714436,0.116021544,0.0059978664,0.10211873,0.075188965,0.022143692,0.11383209,0.0725767,0.018512428,-0.121300906,-0.08614266,-0.022430718,0.10319239,-0.03555256,0.10555354,-0.08756432,-0.058548927,0.05495447,0.08662501,-0.0035998821,0.108704865,0.056819916,0.09051606
1,0.23730522,0.59743875,1.7221088,0.21230318,-0.2500446,1.3326387,0.39833638,0.9867365,0.66042423,-0.37972048,0.47128397,0.3653313,-0.20715748,-0.5917527,-0.4095831,0.21987489,0.077741794,0.66400915,0.3579788,-0.09852911,-0.16506045,0.46245107,0.97775227,-0.48353285,0.24090788,-0.56985426,-0.06376144,1.2553511,-0.4607865,-0.08151074,0.2130915,-0.3501223,0.2953434,0.06938956,-1.6860869,-1.159542,-0.1896035,-0.40260753,-0.80198854,0.36447677,0.39270452,-0.17270213,-0.048519097,0.2159331,0.8063309,-0.117174014,-0.8592096,-0.15445182,-0.037414566,1.3931237,-0.0114909755,0.34573475,0.08056082,1.4563427,1.2908802,0.34978673,0.24840449,0.63415396,0.15225366,0.5346673,0.78255385,0.45388812,0.2522695,0.22157243,0.47018513,-0.696776,0.00575722,-0.21389285,1.4153216,0.6124441,0.12816124,-0.49530742,0.06386406,-0.045299828,-0.11688652,0.87101483,-0.37493852,0.61162055,0.8304046,-0.12483411,0.26550797,0.29838678,-0.38282597,0.065718204,-0.05106511,0.76429814,1.1450578,-0.35529938,-0.8889785,0.51517993,0.5917445,0.05303445,0.85648793,-0.36450377,0.27907708,-0.02140185,-0.071443126,0.04217212,-0.41490018,0.5208133
2,-0.36794928,-0.311684,0.7468745,0.26148263,-0.15868552,0.57347715,0.47941253,0.71955144,0.6831872,0.577661,0.472856,0.3364267,0.22970495,-0.0037237413,-0.21314855,0.0983697,0.57901174,-0.035602715,0.70437,0.32196692,0.7853987,0.47209555,-0.10244163,-0.6405407,0.08177505,-1.0200971,1.0727504,1.0966997,-0.124811314,0.43265715,-0.10737958,0.44643626,-0.06343838,-1.4890612,-0.8316771,-0.34512696,-0.06826627,-0.22539677,-0.22701274,-0.2933216,0.2795055,0.424071,0.14291275,-0.23582716,1.0749427,-0.3969417,-0.07935595,0.67606765,0.7670304,0.25976658,-0.06552868,0.05975258,0.19100672,0.46513644,1.0440736,-0.14155915,-0.9361822,-0.2333225,0.7350314,0.07120598,0.40082315,0.121081896,0.23148602,0.5023609,-0.017605554,-0.13776855,-0.1316202,0.5817545,0.061194025,-0.33285347,0.40298545,0.06250737,0.60430634,-0.0889113,0.8113388,0.8717439,-1.8943216,-0.21366596,0.59937894,-0.6881674,-0.38546762,0.07860571,-0.6604385,0.732372,-0.23515101,-0.2631361,-0.4679154,-0.11074384,0.20097539,0.2700163,0.028933868,-0.033198964,-0.16315132,-0.7124985,-0.047107693,-0.6539859,1.478924,-0.682792,-0.973098,-0.30517766
3,0.10780605,-0.6144876,1.8786001,-0.7962704,0.35573503,-0.16011557,-0.07251362,0.926864,0.91224164,0.5284362,0.39889786,0.050914135,0.17422624,0.031411797,-0.092733346,0.15408865,-0.048102483,-0.053419698,0.7239414,-0.057217956,0.11059301,1.5279402,-0.24138705,-0.62682855,-0.5180421,-0.2660503,-0.054235484,1.6988821,0.5307877,0.14455408,-0.41533563,-0.9308098,-0.48630232,-0.24295048,-1.7229733,-0.50433993,-0.81354636,0.62339306,-0.92314917,-0.602755,-0.16887811,0.30610108,-0.13858247,-0.48704132,0.17989588,-0.30406713,1.0119783,0.048552714,-0.3124181,0.14193912,0.20980564,0.023658203,-0.16152558,1.3812162,0.6511367,-0.03179047,0.088400386,0.52307975,0.07283196,0.23928086,-0.1916293,-0.014496449,-0.35084546,0.3431922,0.017400581,0.36345688,0.4377658,-0.25293675,0.119429186,0.30830708,0.1607637,1.0910826,0.58525646,-0.35053036,0.33656934,2.1693463,-0.8009562,0.06215212,0.98615474,-0.7713632,-0.45369083,0.18663387,-0.6897863,0.14311013,0.49691933,-0.36611468,0.22639671,-0.26123697,-0.6369179,-0.02550938,0.062578596,-0.108154155,-0.06412196,0.12207401,-0.16683494,0.30187073,-0.021675143,-0.18812588,0.04288131,-1.3080302
4,0.1808059,1.1122205,-0.8325653,-0.60489774,0.66858166,0.19523297,-1.0075305,-1.0189421,-0.3525525,-0.07831017,-0.38933432,-0.25154617,0.19460928,-0.13539411,-1.2438021,-0.40114042,-1.0050302,-0.8779836,-0.1904213,-0.7253935,-0.45270553,-0.6274142,0.4190911,0.36969164,0.087547205,0.23352891,-0.5609404,-0.92088205,0.023377774,0.23008047,-0.17474765,0.408922,-0.1089036,0.32299936,0.40354645,-0.82427394,0.02655717,-0.7666042,1.4774457,0.31178954,-0.24609785,-0.36646327,-0.1510538,0.21279931,-0.017429132,0.045524634,-0.94019794,0.14039531,0.1255345,0.76512414,0.2674012,0.31059358,0.31063753,-1.3813411,-0.3667931,-0.6787189,-0.44826287,-0.47203752,0.14602774,0.081855856,0.06363308,-0.15564638,-0.2230645,-0.037614875,0.032936517,0.1655755,-0.5107557,0.49828836,-0.3889629,-0.069869414,-0.27368325,-0.41782635,-0.92082167,-0.09701144,0.04716515,-1.2516934,-0.0974494,-0.61383325,-0.8069722,-0.017123837,0.24936862,-0.8850328,0.66559744,-0.2583562,-0.6096579,0.56535304,-1.2636563,-0.4086868,0.48697692,-0.23715194,0.299489,-0.029839605,-1.0394131,-0.32851848,-0.9095349,0.28174344,-0.43025285,0.053318176,0.9163822,0.028521974
5,-0.13117877,0.63505,-0.19762956,0.74514276,-0.60063255,-0.9234703,0.18129434,0.2076906,0.09250512,-0.64323956,0.10598591,-0.81749177,-0.25518933,-0.26244083,0.96678174,-0.62379354,0.12294282,-0.56198245,0.8708588,0.3181141,0.034935348,0.08249173,-0.19269608,0.56767404,-0.14632562,0.00045773663,-0.12933339,-1.6643932,0.20012489,-0.012809086,0.42556956,-0.034466162,0.044070467,1.0338051,2.2654018,-0.1663431,-0.11249672,-0.46051008,-0.28279713,-0.09955915,0.25556293,-0.31859538,0.16430226,-0.12737735,-0.7332778,1.0098493,0.7149126,-0.44769126,-0.64158297,-1.0082432,-0.05324616,-0.111761816,0.210935,-0.6910143,0.2494695,0.36564535,1.2068981,1.0083637,0.10423216,-0.60470694,0.11802855,-1.8992122,-0.13689318,0.22176456,-0.08288808,0.54772484,1.0276839,-0.28520176,0.07613606,-0.022266455,-0.28215763,0.15156458,-0.033874646,-0.20659189,-0.24459484,-0.20340778,0.4932995,0.57271546,-1.4989377,0.63127404,-0.14770003,-0.37421918,0.39768896,-0.34659865,-0.2993038,0.10843974,-0.022201037,0.060400806,-0.26933387,0.19139543,-0.20441584,0.46544993,1.2814691,0.07108126,0.23734148,0.28185496,-0.51032555,0.4362225,0.309526,0.054984648
6,-0.009465653,0.3181962,0.7069683,-0.30968115,0.21431278,-0.15857348,-0.1261626,-0.5675912,0.17528489,0.9311741,-0.42727983,-0.55701566,1.0918599,-0.26974744,0.18414977,-0.052884277,-0.13695802,-0.14100383,0.0036177991,-0.47424495,-0.08325223,0.98751026,0.5187837,-0.6880093,0.77345926,-0.38697293,0.48059678,0.7265058,-0.48827893,0.33885038,-0.8537948,-0.3264696,-0.4092717,-0.5279167,-1.9812394,-1.2647485,-0.54825985,-0.085805275,-0.08465862,0.28348765,0.14137617,0.37584335,1.135825,0.63569814,1.3093368,-0.38536,-0.56693745,0.3330844,0.20499907,0.22990516,0.99334085,0.3715981,0.48294052,0.6615713,0.54131395,0.13248056,-0.90579623,-0.27057955,0.24576388,0.52996147,0.7362587,-0.3067885,0.1920715,0.28043216,-0.26599082,0.28218856,-0.6748747,-0.2370822,0.21194015,-0.26562288,-0.017642824,0.48733056,-0.24347489,0.14852142,1.0048215,0.48216364,-0.87280154,-0.22694027,1.2162559,-0.7641526,-0.5598528,0.25792134,0.05585197,-0.4351748,-0.898411,0.75583804,-0.16984245,-1.1216708,-0.79396105,-0.20264155,-0.3284807,-0.60501933,-0.16183536,-0.5261489,-1.0248553,-0.1169462,-0.34368068,-1.1446383,-0.30706206,-0.5048066
7,-0.003537507,-0.67830914,0.2481582,-1.0625147,0.25404885,-0.37480742,-0.37838244,-0.037812233,0.24217005,0.526908,-0.7017174,0.13961136,0.59460765,0.22699541,-0.3406122,0.45883647,0.4348057,0.24297872,0.17788573,0.25483164,0.44703835,0.60369146,-0.9990914,-1.0965006,-0.8459749,-0.15362877,-0.42769045,0.6572754,-0.07054625,-0.5678135,-1.4761018,-1.020575,0.028252747,-1.0735655,-0.71777546,-0.10923763,-0.18526667,0.87866825,-0.415671,-0.75792027,-0.5874741,0.25416303,0.40727153,0.040159162,-0.15752892,-0.45501712,0.8459838,0.085005745,0.36043397,-0.38069868,-0.026880516,0.29727173,-0.43788776,0.73739773,-0.32424796,-0.26637942,-0.59049517,0.33099207,0.41968462,0.10500234,-0.45097724,0.06222853,0.2102175,0.1734124,-0.073997796,0.8070405,0.79657197,-0.50734055,-0.61964434,-0.41530684,0.4106422,0.78114396,0.42326444,0.54619086,0.8439138,1.7251163,-1.2628694,0.23863496,0.15328914,-0.880893,-1.6288081,0.4050282,-0.5944074,0.33788604,0.30539197,-1.1122202,-0.14372085,-0.019323144,-0.26996446,0.24871047,-0.3328555,-0.7336131,-0.5369081,0.43700406,-0.5909955,-0.24742454,0.26568392,-0.06594496,-0.058832694,-1.2286408
8,-0.23498571,-0.23585063,0.40497354,-0.36524305,0.38658023,0.02340569,-1.0841657,0.11965289,0.23627366,0.12041377,0.044740178,0.8471174,0.23426965,-0.9500306,-0.059990205,0.6744453,-0.07382877,-0.5413469,0.11385648,-0.49688563,-0.018861042,0.5401891,-0.362679,0.31104553,0.9254213,-0.37446025,0.27695075,0.80014646,0.7714895,-0.74835724,-0.7639705,-0.7681082,0.054284297,-1.1363422,-0.38159207,-0.62280947,-0.19227183,0.5828338,0.1570557,0.17079492,-0.1507506,-0.29113936,0.36313942,0.0828092,0.081903055,-0.25256646,-0.32910615,1.6643522,-0.014566109,0.5406505,0.20675242,-0.5556822,0.1492446,0.26498836,0.32080278,0.74159956,0.06557759,-0.580408,0.33901423,-0.44979006,-0.20449384,-0.6750083,-0.4328442,0.40781134,0.36188623,0.7309497,-0.8170302,-0.08828488,0.2057343,0.3807896,0.17247409,0.3440116,0.38067573,-0.026171762,0.93806475,1.0265726,-2.1797285,-0.07385767,0.83832186,-0.943041,-1.4730108,-0.20159729,0.41127118,0.70303464,0.18498638,0.03312377,0.20022196,-1.2424295,0.124707855,0.2475949,0.124044955,-0.9362951,-0.6279867,0.11018725,-0.8980431,0.30314052,0.37600473,0.34879228,-0.6858057,0.49799445
9,0.3386336,-0.75502896,0.040236577,-0.494247,0.30399036,-0.87858635,0.44704482,0.55350393,0.13391198,0.1622391,-0.0118262535,-0.46144977,-0.03611814,0.64590734,0.28914046,-0.26602095,-0.11520015,0.015890857,0.27121323,0.37562624,-0.026642075,0.4680915,-0.8628614,-0.15130776,-1.0919989,0.46276128,-0.369507,-0.3572688,0.35844988,-0.13450809,-0.016052186,-0.90474224,-0.36749712,0.7411435,0.5524296,0.40977168,-0.049231056,0.8244089,-0.9456623,-0.70027703,-0.27420554,0.19080947,-0.19702083,-0.50689733,-0.58489,0.38755512,1.5430613,-0.9716529,-0.800883,-1.133745,-0.24527745,0.278142,-0.18323216,0.22514884,-0.13752945,-0.26968852,0.34598324,1.1903849,0.015617887,0.1909224,-1.2100556,0.037294168,0.17125694,-0.11850589,-0.06238495,0.39975378,1.5474695,-0.6215533,-0.6828463,0.25024578,0.34950367,1.2294236,0.2731919,-0.15703294,-0.34738073,0.75974065,0.6281618,0.29287776,-0.52614814,0.27644646,-0.10524081,0.38030422,-0.28266072,-0.27057114,0.8537015,-1.0457975,0.05589237,0.52281326,-0.4189929,-0.1471448,0.14090353,0.44252926,0.34184474,0.62201875,0.45122552,0.4985173,-0.8222409,0.60417205,0.6558302,-1.379919
10,0.6455102,0.32199663,-1.2193675,0.16846883,-0.2825351,0.10016255,0.48900858,-0.11591658,-0.76636136,-0.81819314,0.10287601,-0.4634151,0.047406867,-0.27299628,0.8564037,0.08236764,-0.22891885,0.038356055,-0.115651526,0.51620084,-0.64404476,-0.5883064,0.12765743,0.32403508,-0.37948123,0.8745388,-0.50610197,-1.0397032,-0.27615094,0.25237855,0.87407154,-0.12564464,-0.28144738,0.9351439,0.63270956,0.44367698,-0.20087084,-0.060989786,-0.020430055,0.20958883,0.53147936,-0.3236075,-0.2533483,0.37039495,-0.34341857,0.026698312,-0.0426608,-1.1924168,-0.9069869,-0.6598969,0.29428947,0.11577446,-0.38183162,-0.42652196,-0.33806494,0.1626663,0.023366295,0.28745666,-0.07786622,-0.2094678,-0.88396627,-0.272679,-0.15172811,0.17369412,-0.062425308,0.11802724,0.97596616,-0.14972249,0.23779432,-0.122340165,-0.36399674,0.56547636,-0.40543464,0.17918783,-0.269454,-0.5773899,1.8334366,0.48223513,-0.4520281,0.82031983,0.607565,0.057701267,0.38380635,-0.2460192,0.25016212,-0.15551849,0.3835081,0.22381541,0.10328373,-0.24406357,-0.3970454,1.4829285,0.8766363,0.34703055,-0.17882732,0.23496306,-0.5690563,0.09592705,0.06373761,-0.39953214
11,-0.3613185,-0.77343845,1.1686642,-0.10203387,0.8538807,-0.10904712,-0.07557215,0.79806435,0.29425836,0.08971438,0.12159494,-0.2930912,0.6588369,0.43938154,-0.3756641,1.1208252,0.7633494,0.64785343,-0.020979485,0.38975856,-0.11921787,-0.07206942,-0.17621705,-0.49073407,-0.013081704,0.0483606,-0.6295068,1.3770064,-0.36016268,0.7742335,-0.08318581,0.63102984,-0.1783154,-1.1094441,-1.7093233,-0.8635727,0.3717127,0.05455114,-0.27745098,-0.61399746,0.2220025,0.2569905,-0.077642836,0.83316576,0.28523737,-0.8681788,0.098148964,0.018142058,-0.20642926,-0.17387307,0.1618554,-0.57860154,0.18426639,0.6352449,-0.54260486,-0.37226826,-0.2377608,0.08241665,1.4505268,-0.3253421,0.59282625,0.43979597,0.4176632,-0.336109,-0.481975,0.3056273,0.092310525,-0.090808354,-0.23779954,-0.44453484,0.033764876,-0.2745478,0.5332851,-0.19162858,0.16398886,0.86926615,-0.55346066,0.96900356,0.39137042,-1.0916845,-0.2851159,0.6090485,-0.37597722,0.31952593,0.43724933,-0.28702492,1.1371367,0.14227352,-0.12453098,1.3001434,-0.7988429,-1.0197922,-0.66253394,1.0586594,-0.0107788425,-0.32565635,0.78472775,-0.80146676,0.04928125,0.646521
12,0.024703234,0.39072153,0.32492667,-0.08849329,1.6856213,-0.14700629,-0.5199917,-1.3777103,-0.11930274,-0.0011528237,-0.33096582,-0.2602937,0.3403794,-0.20294595,-0.30894032,-0.24871905,0.17482245,-0.39480317,-0.31798556,-0.77836823,-0.36030224,0.5658612,-0.25364423,-0.5081795,0.38641563,0.19570385,-0.16065915,-0.38699576,-0.4266693,-0.44218758,-1.1737019,-0.9685478,0.19698462,0.32770357,-0.21072344,-0.8136366,-0.41235003,-0.01159667,0.54185516,0.5174904,-0.11343973,-0.28094596,0.4800488,0.07740387,0.58650094,-0.19035104,0.04849261,0.18699844,0.1674693,-0.010457931,0.25804487,0.061718512,0.04175651,-0.049177647,0.03668506,-0.24331002,-0.13587177,0.050402176,-0.001070639,0.13948864,0.27626404,-0.66759855,-0.17240211,0.013633869,0.07580966,0.6588035,-0.08216475,-0.050962742,-0.19096793,-0.0961608,0.4188405,-0.2597545,-0.32751763,0.07498976,0.57977235,0.26565483,-0.49346238,0.028060962,-0.9470783,0.092324905,-0.3592402,0.025056388,0.09529568,-0.49425435,-0.7215458,0.69067883,-0.49547628,-1.7331446,-0.7349173,-0.19015905,-0.8200468,-1.0981787,-0.15981501,-0.45899326,-1.5290704,-0.11229428,-0.41351563,0.40664536,0.88064617,-0.29165003
13,-0.6683593,0.022351429,-0.21383779,-0.02106787,-0.4957365,-0.3412631,0.69687283,-0.60269773,-0.25081018,0.0558759,0.20399441,-0.39609978,-0.22562875,0.5950748,0.8620289,0.2241818,0.36368617,0.34833047,0.36155075,0.4225799,0.2743877,-0.15938091,0.071236186,-0.7502461,0.341679,-0.24296749,0.30381203,0.1003269,-0.74566627,0.2063166,0.06734692,-0.71354747,0.5916575,-0.09516728,0.028095694,1.3913412,0.77271456,0.9649096,-0.676354,0.22229925,0.7521446,0.5131546,0.26617584,0.7467461,-0.26748115,0.046512786,0.5599956,-0.35441566,0.18811308,-0.6917353,-0.2984646,-0.044828225,-0.0034864394,0.6315091,-0.8966069,-0.8086326,0.13751131,-0.484548,0.09690845,-0.66921085,0.05560962,-0.2186435,-1.4224545,-0.5336152,0.18715195,-0.7728396,0.29298502,-0.8902173,0.34198755,0.25296137,0.19004127,-0.18207902,0.11901157,-0.15058629,0.27683276,1.114023,-4.1012117e-05,0.03627091,0.23130432,0.1549733,-0.382056,0.6234641,-0.310478,-0.06399498,-0.084889,0.9671196,-0.1525555,0.060070243,0.6542351,-0.45234713,-0.8014172,0.55134,0.38279545,0.43450522,1.1024051,-0.26867935,0.59635943,-0.10878393,-0.24719618,1.1380599
14,-0.0089369705,-0.06469256,0.34083983,-0.35328972,0.07371915,0.45546278,0.04076804,0.26743126,0.21943618,0.9665254,-0.44936976,0.6170964,0.69840336,-0.15169685,-0.34409305,1.0736158,0.79180646,-0.09091086,0.48911124,0.45166808,0.2594575,0.15892051,0.0937728,-0.8188745,0.105738476,-0.15208852,-0.17405096,1.1005496,-0.13069761,0.041946203,-0.53360844,-0.13349918,-0.3392387,-0.81879795,-2.3181374,-1.4180578,-0.19741005,-0.0115344,0.05104054,-0.17198682,0.42463508,0.22859645,0.80427164,-0.17903997,0.40977955,-0.54117966,-0.7491271,0.33177993,-0.08861021,0.980031,-0.05216224,0.5510864,-0.5175136,0.53489983,0.18746755,-0.06464646,-0.19905701,-0.6995512,0.6701539,0.30326748,0.2786611,-0.19937937,0.14126328,0.50263244,0.08700645,0.3680665,0.13193326,-0.009123716,0.5102047,0.45338497,0.13341156,0.3171026,0.05950616,-0.0018486287,0.078170195,0.28661647,-0.8415058,0.7469328,1.3700256,-0.44057348,-0.3622622,-0.07199637,-0.05190649,-0.17243306,-0.30178937,0.029411785,0.0766919,-0.22521116,0.024510555,0.6574479,-0.21273132,0.14569302,-0.13124913,-0.5534305,-0.8610595,0.51944906,0.86444145,-0.3518973,-0.41561455,0.022934651
15,-0.4337932,0.18617207,0.54235387,0.3210779,-0.19629546,0.9958505,-0.17460467,1.5505772,0.56027347,-1.026579,1.0022057,0.06582957,-0.29718113,0.69811165,0.44770873,-0.49455497,-0.4509816,0.20749831,0.5432355,0.48000178,-0.54167205,-1.0198206,-0.16216655,0.06398812,0.14534448,-0.1450061,-1.0015041,0.004612781,0.1640175,0.45862275,1.4366226,0.78187907,0.01159772,-0.31650716,0.048415095,0.13376749,0.9093358,0.04100834,-0.120542,-0.7886719,0.3133918,0.40496746,-0.88502043,0.28635412,0.041041687,-0.55311304,-1.1520238,0.10458569,0.11437158,0.38517144,-0.5505375,0.48750427,-0.3457084,-0.26937976,0.92793816,0.81982255,0.54983187,0.40827116,0.9533421,-0.077123836,-0.11053198,0.04145196,0.58325976,-0.81354076,-0.061027862,-0.44652474,-0.80764383,0.25113267,0.36646086,-0.14729403,0.11922771,-0.21413428,0.41233262,-0.74188626,-0.69657916,-0.08686271,-0.149418,0.038166113,-0.34490404,-0.21723385,0.98468876,0.21998346,-1.2863336,1.0057096,0.24515447,0.22847098,0.8050467,0.24730915,0.33425906,0.14615022,0.5509833,0.015769303,-0.44784775,0.5826135,0.6171149,-0.5502645,0.14612915,0.16041498,0.057681635,1.4759135
16,-0.97734493,-0.27098563,-0.063985355,0.2974595,1.127769,-0.5972637,-0.83751506,-0.4642959,0.20868522,0.5267272,-0.32652447,-0.4032306,0.18967955,0.30188635,-0.28701547,-0.6155161,-0.45699343,0.12388682,0.1647082,-0.16667496,0.48131382,1.1874589,-0.63963586,0.08134359,-0.09349187,0.31160212,0.76576126,0.40723443,0.7553147,0.20154859,-0.43815747,0.6933564,-0.6163973,-0.84842235,-0.41444504,0.8471241,0.020650854,0.40127605,0.0946825,-0.9181847,-0.0060955975,0.9391638,0.06238452,0.33963394,0.12297179,-0.794086,0.35243133,0.9238719,0.16259512,-0.62510496,0.27683407,-0.012633146,0.53037745,-0.17740126,-0.71046096,-0.13561474,-0.7207409,-0.20037435,0.06887141,-0.14398444,-0.24605599,0.1588919,-0.09610496,-0.011788823,-0.36140406,0.07432359,-0.24489854,0.120636135,-1.0926508,-0.41743222,-0.16501479,1.30926,0.4326243,-0.21217756,0.9846496,0.40464616,-0.9107709,-1.4435171,0.28011328,-1.3178107,-1.1269867,0.13948773,-0.27306175,0.75623244,0.18116297,0.089205176,-0.95743877,0.24185802,0.07526315,-0.8857629,0.66136676,-0.046780705,-1.1578499,0.26127326,-0.49045804,-0.6249287,0.046047244,-1.1232432,0.269586,-0.4507319
17,1.236587,-0.30005562,-0.36890215,-0.58254105,0.30209532,0.803775,0.2945166,-0.13684203,0.13197842,0.22831422,-0.20894638,0.8801353,-0.44640973,0.10673957,-0.36699814,-0.52241147,0.29227114,-0.31371903,-0.34705016,-0.16633956,-0.056790177,0.20689745,1.0407611,-1.5082681,0.12167021,0.17206608,0.2293664,0.61087936,-0.9827429,-0.357438,0.6748937,-0.4348418,-0.18119979,-0.19686674,-1.0108167,0.2648471,-0.2988175,1.0508572,0.88381416,0.33975253,0.34526312,-0.18167503,0.028420242,-0.5609207,1.6033983,-0.047553964,-0.059226368,0.5752482,0.6209564,-0.16135713,0.33049563,-0.15523113,-0.30091825,0.2514547,-0.19718184,-0.30464977,-0.9509836,0.07356847,0.5721253,0.980309,-0.19838758,1.2975329,-0.23564751,-0.6025723,0.4022416,-0.9324218,0.2753183,-0.39043787,1.4473258,0.667055,-0.23562479,0.008709917,-0.5269059,0.1310716,-0.24480326,-0.11569345,-0.32829514,-0.5611278,0.34729093,-0.012997123,-0.44546613,0.21903181,-0.017761333,0.17738569,-0.20646591,0.60180455,0.5781589,0.48136774,0.6462802,-0.667998,0.09631276,-0.062379297,0.58773345,0.61956096,0.29909787,-0.6841544,-0.22528444,-0.0062835086,-0.061523713,-0.23684372
18,-0.08042677,0.17178656,-0.131346,-0.24577142,0.66152287,-0.66073346,-0.06224757,-0.14659978,-0.08343663,-0.41032937,-0.3774898,-0.02363835,-0.18077826,0.07991612,-0.0610798,-0.65642303,-0.62424576,-0.6252524,-0.23860598,-0.6082512,0.052017156,0.09193726,-0.016538061,0.10566878,0.32975382,0.41691867,-0.34231576,-1.3129053,0.7760365,0.17950773,0.123822644,0.1903037,0.20819448,0.88576376,0.92256963,0.35299304,0.1588067,0.24039866,-0.0048655123,-0.7544384,-0.093469694,-0.110349566,-0.050523337,-0.14850366,-0.62456423,0.7618082,0.33017334,-0.23779663,-0.3578111,-0.0714262,-0.38359624,0.19452764,-0.049210757,-0.61081743,-0.44393083,-0.02094554,1.0766884,0.85316765,-0.4640927,0.26082268,-0.23566246,-0.30658436,-0.020789163,-0.36568967,0.3339047,-0.21754487,0.33715904,-0.3290845,-0.11242682,0.7901739,-0.012397448,0.11085125,-0.5168679,-0.6075214,-0.9118937,-1.3313912,1.1142521,0.018646559,-1.5814617,0.6416986,-0.14516646,0.01467743,0.8650521,-0.04870825,-0.26924494,0.23403873,0.032997914,0.11599918,-0.12931022,-0.5551199,0.6391123,0.32285893,0.19361134,0.09462289,0.072314166,0.8267656,-1.4186159,0.83952224,2.0144517,0.06092755
19,-0.039913546,0.36479768,0.24791703,0.6813979,0.34727716,-0.8538544,0.5283916,0.073692314,0.5168284,-0.29775044,-0.20590784,-0.22051069,-0.79595965,0.8488891,0.026110653,-0.7796042,0.497571,-0.26453015,0.76206267,0.699753,0.013527941,0.009103196,0.4249382,0.8614529,-0.030860662,-0.045972697,-0.39325976,-0.19509494,0.5669061,-0.27812254,0.06436673,0.8989894,-0.5509292,0.78730136,0.04227442,-0.4238475,0.27131507,-0.19865158,1.132555,-0.31454757,0.25465813,0.009039729,-0.5118605,-0.51113206,-0.19589436,0.8856807,0.18717147,0.16845807,0.12214388,-0.35946026,-0.45750389,-1.1244783,0.25713155,-0.32875645,0.30183384,-0.13605139,0.9670738,0.5589514,0.42903417,-0.040628374,0.64804095,-0.110243,-0.59633946,-1.0278167,0.3152066,0.014782642,0.4882584,-1.2253054,-0.21040858,-0.8702759,-0.4753167,-0.24984054,0.11697245,-0.45978168,-0.5603673,-0.45643696,0.4140539,0.3378705,-0.66298723,0.5277759,0.57933,0.29276723,0.54501027,-0.44429177,-0.93222183,0.82101905,0.26034862,0.30718663,-0.3183885,-0.3102374,0.29418474,-0.10183844,0.1553012,0.08520997,1.2329838,0.15013394,-0.60841554,-0.46601897,1.6702492,0.9373334
20,0.8437229,0.59429115,-0.094861105,-0.8962272,-1.3206527,0.39452523,0.09334269,0.1739466,0.5978442,-0.5698485,0.020082178,0.6492999,-0.30238292,-0.5167897,0.5057323,-0.5009833,-0.7314027,0.2807824,0.8439062,0.1427196,-0.36864567,0.3474698,0.74057883,-0.15904959,-0.6091618,-1.0411061,-0.6411203,-0.74164075,0.72502756,-0.8064752,-0.38598728,-0.8346023,-0.052469313,1.0575492,-0.34397742,-0.21584512,-1.0276788,0.36578372,-0.66082865,0.31763425,-0.6008655,-0.555355,-0.009211214,0.15580574,-0.23916535,0.2490338,-0.48721144,-0.29938236,0.2853677,1.1798675,-0.104745016,0.20620953,-0.19060285,-0.059967145,0.80091655,0.47890323,0.6536848,0.88496447,-0.93686354,0.48188683,0.29393116,-0.050190907,-0.076429844,0.38658294,0.45724165,0.14088583,0.14766213,-0.2636718,0.7002407,-0.23152077,-0.14037071,-0.45875016,-0.45778385,0.91942483,0.4542203,0.15064698,-0.18831047,0.4145829,0.019631244,0.43494725,-0.29422155,-0.27540448,-0.18479697,-0.04490675,-0.6597247,0.6145096,0.6817706,-0.45959604,-0.051536918,-0.15080614,0.42346287,0.24064316,1.1063678,-0.56440777,0.49683,0.73785186,-0.44504538,0.8319932,-0.50390136,-0.6851147
21,-0.07796012,1.1459723,-0.037874643,-0.017128512,0.05562943,1.0399798,0.053617418,0.40367943,-0.4141849,-0.3187731,0.47183943,0.09375357,-0.26852736,0.12719643,-0.7443796,0.15464456,-0.5183784,1.05133,-0.82360494,-0.10198359,-0.2293196,-0.23045072,0.2536263,-0.10349498,0.88614744,0.8791356,-0.29465035,0.79630363,-0.016528962,0.37878773,0.14853247,-0.007884369,0.8027663,-0.33174005,-0.680856,0.6853674,0.10528571,-0.01486303,-0.19200288,-0.16762027,-0.4270056,0.03578313,-0.41506994,1.0677122,0.15521343,-0.5503247,-0.57342666,-0.6275999,-0.2271977,0.37297615,0.058435816,2.108008,-0.15836439,0.57354194,-0.7784263,0.1073532,-0.16441837,0.8761699,0.25774354,0.84913933,-0.03722813,1.5073836,0.30080703,-0.20112608,-0.0049353205,-0.57233495,-0.9521365,-0.036786735,1.0573314,0.122349076,0.47163904,-0.15365386,-0.36738688,-0.9236693,-0.7449802,0.7390399,0.32680055,-0.27792543,0.90403265,-0.05580267,0.23619159,0.66073895,-0.23063725,0.29490933,0.641901,0.08711163,0.3537313,0.07179486,0.09802434,0.20653735,0.39372537,0.03884659,-0.58807546,0.85355675,-0.01943541,-0.12390174,0.28926298,-0.21572234,0.1399715,0.16878805
22,0.84053385,-0.03280412,-0.3554178,-0.6766559,-1.4153249,-0.5847069,0.35883063,-0.24128228,-0.09175305,0.6121218,-0.33555073,-0.041509524,-0.025593985,0.28581208,1.5285833,0.76231843,-0.1958959,-0.41750452,0.4905437,-0.23679534,-0.6298854,-0.44915527,0.31682044,-0.5906876,-0.23044893,-0.3396062,-0.6515959,-0.62536025,0.43568215,-0.02788266,-0.5461535,-0.16705027,-0.5898797,0.5963699,0.15608783,-0.45717555,-0.5311407,1.075455,0.29129434,-0.119781986,-1.5865579,-0.42924333,0.27969426,-0.07221987,-0.13940021,0.39740208,0.5043583,-0.073318176,0.1532122,0.06261598,-0.03472449,-0.016801884,-0.62041855,-0.07668155,-0.55260724,0.24045646,0.57084477,-0.3047995,-0.8118033,0.40880877,-0.28591993,-0.044161975,-0.45623416,0.38469684,-0.2397256,0.96795624,-0.1584726,-0.6016846,0.47089806,-1.3610317,-0.2553417,-0.46588343,-0.20622592,1.1505305,0.016267672,-0.16213068,0.7977911,-0.014048337,0.41435972,0.2626413,-0.0027829227,-0.0068992362,0.28070235,-1.1074193,-0.3225761,0.15660958,0.47989237,-0.021814484,0.3334256,-0.19703905,-1.3021839,0.2541201,-0.09487501,0.6837753,0.37184742,1.2457987,-0.6038812,0.11800091,-0.076181784,-0.85458183
23,-0.15215454,-0.11758175,-0.3647653,-0.656365,-0.64560837,-0.13363498,0.28498718,0.120263025,-0.083111644,-0.05116796,-0.05469364,-0.23248966,-0.5422468,-0.20025198,0.31773683,-0.03769416,0.5427105,-0.049133994,-0.17792855,0.30970266,0.88343346,-0.2373011,0.3210787,-0.5733903,-0.72371995,-0.18743198,0.1846639,0.0434182,-1.1503743,0.14279245,0.43967313,-0.41130883,0.500337,-0.39191592,0.43715435,2.0289326,-0.09511083,0.16554905,-0.6396744,-0.5661855,0.07206493,-0.14846286,0.25681105,0.22149312,-0.043760538,0.06750913,0.72987723,0.13792837,0.48121044,-0.3526044,0.06042868,0.23049824,0.1893516,0.16153158,-0.8304292,-0.340298,-0.34809443,-0.027049622,0.9366994,-0.7043682,0.08710525,0.062104095,-0.44185108,0.16035262,-0.16631432,-0.81833446,-0.08629801,-0.26555264,0.32393688,-0.33920282,0.04616971,0.90142524,0.9453012,0.09077505,-0.13881415,1.0769736,0.16321626,0.21183768,0.67711276,0.23094527,-0.6863336,0.72458994,-0.22563261,0.14570194,0.6529648,-0.42970762,1.141853,0.31153944,0.39367923,0.14144924,0.43687254,0.29643,-0.07868912,0.59155875,1.1285989,-0.1691276,0.21923351,0.17069927,-0.47239685,0.04363319
24,-0.27819347,-0.19838187,0.78902364,0.73803437,-0.5717742,0.4186955,0.59962153,0.96216637,0.0087535065,0.6339072,0.9938327,-0.4601099,0.1099057,0.1483466,0.8537138,0.6768168,-0.4295295,0.05685612,0.39039406,-0.30473837,-0.1959707,0.20454942,1.0550069,-0.3538684,0.9059302,-0.076858066,0.83033085,0.6043992,-0.10525203,1.325609,0.90616065,1.1062093,-0.30960524,-0.24280535,-0.5336407,-1.0192374,-0.14271145,-0.06675167,-0.5706037,-0.3355197,0.5225827,0.1620545,-0.044740688,0.7300006,0.45216587,-0.23755167,0.07125932,0.34271184,-0.38544193,0.11363636,0.63541716,-0.547968,0.88275886,0.25103614,0.062917896,0.85465115,-0.26750904,-0.5178032,0.21063723,-0.20409873,0.633966,0.26707265,0.16472493,0.6298529,-0.30152524,-0.08426357,-0.48896933,0.19923824,1.2470986,0.24242808,-0.5016453,0.03259807,0.39387769,-0.6647467,0.25220165,-0.07534424,-0.2979989,0.3631314,1.4017661,-0.24543679,0.17900687,-0.1373811,0.30383036,-0.6085569,0.081844844,0.29877967,0.50473714,-0.029182235,0.42138007,0.37607956,-0.4120886,0.97726566,0.29543835,0.30119038,0.20727903,0.55539185,0.22794978,-0.85637236,-1.1119756,0.5935781
25,0.5970348,-0.08749498,-0.50940657,-0.16999437,-1.1614927,0.82294786,0.20864896,0.15006365,-0.87594604,-0.43287137,0.5763562,0.026322784,-0.07746633,-0.08872482,0.5497639,0.28891847,-1.07121,0.36886224,-0.8347855,-0.66621643,-0.8212508,-0.5750999,-0.1286941,-0.24236745,-0.29343984,0.23916219,0.27788562,-0.5961899,0.3317787,-0.031917293,0.29025283,-0.210563,0.12897037,0.18112181,0.6007015,1.0293428,-0.8551943,0.29394653,-0.18713565,0.92610985,-0.96731716,-0.2833307,-0.27775738,0.23476078,-0.14775483,-0.21839292,-0.42658564,-0.5933563,-0.5239898,0.20676309,-0.50356174,0.11728482,-0.2086739,-0.46559104,-0.29010406,0.14890341,0.2949407,-0.13083726,-1.1856569,0.8529531,0.46892312,0.4351437,0.32875928,-0.010164989,-0.27587315,-0.43381462,-0.9080478,0.26692206,0.12691613,0.5850236,0.70733255,-1.2080531,-0.7436363,0.28203115,-0.105286196,-0.45502272,0.7316747,-0.67781895,-0.15363532,0.65052134,0.77572197,-0.59997344,-0.4402312,0.57182896,0.11963957,0.22233504,0.19330989,0.1273691,0.37743232,-0.20043273,-0.31900707,0.67129844,0.38915431,-0.11162507,0.5299803,0.44279897,-0.3350477,0.93673396,-0.47975698,-0.31142995
26,-0.5180417,0.20211527,0.0897707,0.39996365,0.8906305,0.08624106,0.23029245,0.68634826,-0.1641865,-0.7095513,-1.2315104,-0.12620087,0.59014165,0.674465,-0.23878254,0.118306465,0.15784119,-0.038198214,0.09154208,-0.45425382,-0.13947056,-0.5344086,-0.20952626,1.0743647,0.50641555,0.57274765,-0.42527804,-0.22615685,1.5908045,-0.014374778,-0.40662116,0.87441874,-0.5465441,0.30489853,-0.020084955,-1.7547272,0.010840154,-0.98346514,0.4634009,-0.0650582,-0.2594578,0.104691826,-0.0874651,0.39940706,0.21409073,0.7777758,-0.23158762,-1.4166884,-0.6566719,0.37668574,0.065765716,0.49106684,-0.06531456,-0.1254096,0.01936185,0.7726823,-0.09246201,0.42771322,0.06266242,0.19643593,-0.039196413,-0.05289075,0.5781057,-0.19053075,-0.12910447,0.81898904,0.13033263,0.35513774,-0.42817885,-0.40461636,0.3571961,-0.46369445,0.13336031,0.09245238,0.21938343,-1.2526124,-0.2735359,-1.2082278,-0.652474,-0.17954677,-0.115884595,-1.2795756,-0.023943853,0.5524237,-0.12271631,-0.3597607,-0.42968738,-0.15893185,0.17001353,0.4441264,0.04295411,-0.28902346,-0.40668502,-0.33433086,-1.1687261,0.45805857,-0.19661927,-0.25650075,0.027422417,0.122715294
27,0.55425423,0.54983765,-0.7336674,0.45474422,-0.355382,-0.3635092,0.46863118,0.31532004,-0.2595578,-1.0344044,-0.08939274,-0.20378514,-0.6443202,-0.010681729,0.8275995,-0.26700294,-0.0772466,-0.727867,-0.31052914,0.0066084466,-0.8599205,-0.010426614,0.09817229,1.0512581,0.2562957,0.33823508,-0.31533763,-0.5191885,0.46951628,0.27981064,0.12438818,0.44078967,-0.10860349,0.4814769,0.696738,0.7290306,-0.08053577,0.047003295,0.5283358,0.20771444,-0.10329729,-0.7454301,-0.30793372,0.5072893,0.07515051,0.61677986,-0.3368266,-0.15698282,-0.9731569,-0.4386466,-1.0655608,0.15962887,0.1879261,-1.3995173,-0.3312984,-0.07011456,0.9159675,0.4953568,0.48075104,0.4804548,0.6582629,0.08309712,0.033566814,-0.1208664,-0.17073223,-0.39374518,-0.08886966,-0.6750438,-0.61535215,-0.14394379,0.061660804,-0.62801653,-0.15526171,0.50822234,-0.43357137,-0.4189212,1.4580607,0.037106536,-0.90263397,1.3738124,0.14889248,0.38563207,0.35588628,0.25455773,-0.46360207,0.62356454,0.8226914,0.15041089,-0.05366128,-0.31019995,-0.12495233,-0.23312695,0.26953793,-0.02054292,0.816016,-0.15877481,-0.4064415,0.70196533,0.303095,0.30346167
28,-0.5567399,0.2298605,-0.7024071,0.3384762,0.739326,-0.5320645,-0.88464826,-0.6385505,-0.5054776,0.050085958,0.07472676,-0.17771925,-0.8678483,0.045454044,-0.27390343,0.06350518,-0.3156958,0.53724957,-0.33621123,0.1576269,0.044199575,0.055763785,-0.51873255,0.7462547,0.055721,0.4799765,0.28453776,0.66146004,0.5117088,-0.37702635,-0.44840473,0.54702973,0.30697668,-0.21706858,-0.34583247,0.78588194,0.28658462,-0.44977427,0.3051418,-0.680743,-0.4290025,0.6430452,-0.46952978,0.7013937,-0.31304482,-0.47161946,0.08615297,-0.04925272,-0.08774734,0.0393837,0.036606133,0.61039686,-0.16446684,-0.33469945,-1.4804564,0.36956173,-0.8283103,-0.3216577,-0.6490777,-0.2058848,0.0544891,0.68686795,-0.40630844,-0.16296588,0.6180133,0.3100105,-0.60203856,0.43684667,-0.120549776,-0.641044,0.20955236,0.5735261,0.3014239,-0.21790774,0.11479373,-0.21432242,0.25220773,-0.47630632,0.23499212,-0.27769694,0.1732348,0.055421673,0.02375254,-0.24837585,0.1317426,-0.105698995,-0.36552608,0.44197294,-0.11183348,-0.39343527,0.27916816,0.36692476,-0.7488037,0.6689535,-0.21672428,-0.556641,0.46290198,-1.0389472,0.47836462,-0.62832
29,-0.54962385,0.24947461,0.6243294,0.04692589,-0.06549893,0.5709959,-0.2926461,-0.15653695,0.19487764,-0.70165443,-0.7289229,1.2321799,-0.4010287,-0.061876427,-0.72937113,0.3422391,-0.2923284,0.31175056,0.122038715,0.06760631,0.59981024,0.09402425,0.63916653,0.01813754,0.47133312,0.15454723,-0.9809835,0.46073288,-0.30984783,0.094806805,-0.35312772,1.0259143,0.40568224,-0.4772181,-1.0983882,-0.20884083,0.29862148,-0.70212394,-0.14517774,-0.639703,-0.18371919,0.12897666,-0.66688895,1.9907042,0.2655251,-0.777831,-1.1326375,-0.40552378,-0.021408638,1.0525401,-0.041097,-0.083514154,-0.67099655,0.72432923,-0.14991474,-0.2113536,-0.013408206,0.3827188,-0.13855754,0.40852875,1.0050665,-0.052478224,-0.17041427,-0.23797292,0.5095442,-0.033354968,0.03405978,-0.13535899,0.34933928,-0.06683648,-0.34909117,-0.33602253,0.19730645,0.7945875,0.013698931,0.36458096,0.5929567,0.9275255,0.057669874,-0.0006078604,-0.32357085,1.0990604,0.13386644,1.0790638,0.097744346,0.5199486,0.9969809,-0.14544445,-0.41423598,0.42369777,-0.29210562,0.42302695,0.08529842,0.9919302,-0.20343433,-0.45067188,0.27919412,-0.7921718,0.21487169,0.5436849
30,-0.25220928,-0.017004058,0.6347116,0.6482841,0.8096855,-0.13573138,-0.68062454,0.0747402,0.04561289,-0.7296936,-0.21122298,0.0047381185,-0.28451335,-0.3704084,-0.9339521,0.09469648,-0.37268254,1.55381,-0.41278362,-0.62889034,0.057781406,1.3737242,-0.4984198,0.46895993,0.039964344,0.35858214,0.38410264,1.3639379,0.16182736,-0.05471092,-0.046300273,-0.16777012,-0.13551672,-0.20898369,-0.9806727,1.0495793,-0.1370978,0.37358582,-0.32172698,0.16326176,0.43510875,0.46317387,-0.15559115,-0.41945437,-0.050643105,-0.4925803,-0.11478709,-0.15720554,-0.35844848,0.20142579,0.27019,-0.39782563,0.010349565,0.8080239,-0.25170323,0.66249806,0.5912882,0.48831686,-0.2728513,-0.2218357,0.018968536,0.5482294,0.035606403,-0.10603968,-0.16283332,-0.66870165,-0.07255063,-0.19022213,0.034362063,0.77822834,-0.35900286,0.3406439,0.4851868,-0.34985468,0.02292549,1.0267973,-0.09951797,-0.194763,0.39716375,-0.583124,-0.64490026,0.9296406,-0.22680211,0.39742717,0.9741062,-0.26274377,0.80962324,0.28984168,-0.90840775,-0.49144655,1.1630626,-0.4247769,0.20067829,-0.22385232,0.06784639,-0.22013868,-0.080216035,0.0559822,0.43320438,0.49931672
31,0.13958237,0.26622888,-0.29375026,0.050577056,-0.13729778,-0.83970827,-0.00940555,0.1797405,-0.062184665,-0.1860445,-0.16049008,-0.5523278,-0.22216436,0.6577104,-0.74255633,0.12629636,0.28941166,-0.6418328,-0.105834834,0.52314,-0.6368607,0.0850685,-0.3342831,-0.27603543,0.4508329,0.401693,-0.22556445,-0.053294417,-0.30997926,0.7063542,0.04452322,0.26444793,-0.40492314,1.0164068,0.051854465,0.021533433,-0.11441599,-0.018937636,0.18399495,-0.31441784,0.15057658,-0.048403498,-0.015922919,0.004746524,-0.18417759,-0.10379991,0.35530436,-0.3224436,-0.22762577,-0.39705497,-0.17629258,-0.15647063,1.0931721,-0.12220534,-0.028525457,0.22539906,0.40542102,0.30971187,0.09636902,-0.24152768,0.22685552,1.0806609,-0.04338224,-0.1708597,-0.09560097,-0.842917,-0.027167374,-0.045304075,0.4238199,0.16347376,-1.1965531,-0.17989953,-0.098080575,-0.6935303,-0.6065015,-0.7405804,1.3586181,1.0181007,-0.27101317,1.7172062,0.550422,0.39177153,0.25154352,-0.44936195,-1.9637731,-0.035506647,0.30120823,0.0029979006,0.9153256,0.2947785,-0.6190225,0.41730928,-0.36148587,-0.0959721,0.31880948,0.26925582,-0.18072963,0.16685009,0.9112549,0.7052293
32,0.15614483,-0.09170332,0.2627162,0.06981392,0.7892337,0.05960138,-0.41628343,0.023675578,0.43157405,-0.055060085,-0.37676445,-0.06682402,0.0019788088,-0.08563161,-0.7356733,0.00060263334,-0.09793959,-0.43489438,-0.67822796,0.078962065,-0.335461,0.35595408,0.5099241,1.0167454,0.42938486,0.21008727,-0.17128415,0.36626092,1.2069712,0.4631697,0.04572472,1.113387,-0.39363262,0.38804448,0.11710979,-1.1789596,-0.14989951,-1.0889946,0.16398613,-0.08369575,-1.0111836,-0.36063358,0.15266792,-0.73320615,-0.38332567,0.37949374,0.11575035,-0.0078107114,-0.46604854,0.7341755,-0.062738225,-0.12426722,-0.30931845,-0.06442704,1.0760722,1.1082816,-0.009741256,-0.057109978,-0.5542142,0.39941725,-0.048480134,0.5582577,1.8751653,-0.15623176,0.354603,0.034040913,-0.57770306,0.6370123,-0.5932735,-0.0893441,0.1810044,-0.17862016,-0.16951667,-0.7754959,-0.12467564,-0.8029916,0.11583049,-0.7456541,-0.114326276,0.39193726,0.6419689,-0.27489683,-0.20307584,0.47135985,0.4091784,-0.3663722,-0.055526625,-0.11641682,-0.15717675,0.33952227,0.5186821,0.05693868,-0.06310205,-0.08747304,-0.5507994,-0.32724565,0.10462347,-0.046284795,0.32756633,-0.98851186
33,0.68457675,0.046362396,0.38753644,0.2412562,0.88115275,0.20293921,-0.3009025,0.4322046,0.5747271,0.7552746,-0.5075815,0.21504433,-0.18935938,0.45168123,-0.63926417,0.015432722,-0.24015251,-0.042933576,-0.2617437,0.045604263,-0.5336607,-0.028173558,0.48841566,0.73168135,-0.07912944,0.7215122,-0.09389705,0.37062854,1.1008655,-0.17153308,-0.31346658,0.7900113,-1.0733973,-0.19661883,0.038595855,-2.1353133,-0.252363,-0.8050888,0.17415321,-0.22687495,-0.7141222,0.10357677,0.034961477,0.27271143,-0.00977133,0.279802,-0.09049308,-0.24716069,-0.04837276,-0.025330016,0.10069849,-0.18315715,-0.15283181,0.138798,1.3409134,1.535353,0.034104746,0.025272751,0.022389906,0.36734685,0.020844143,0.5227269,1.4774245,0.18925773,0.31179234,0.11670236,0.019044366,0.33107787,-0.055034555,0.47418618,-0.05850009,0.04797904,0.15551533,-0.040326413,-0.17399462,-1.0344623,0.091926135,-0.8992997,0.10454709,-0.013428167,0.29818308,-0.105488256,-0.35675436,0.34378085,0.3123424,-0.5811588,0.033750452,0.23100226,-0.045546122,-0.0044699954,-0.24088795,-0.56501627,0.09186979,0.19031729,-0.04859262,-0.15758656,-0.25288573,-0.05443981,-0.010734615,-0.99683887
34,0.22235681,0.3357303,0.09932151,-0.021746626,0.5384087,-0.4911594,1.0013785,-0.06524298,0.20013027,-0.43062237,-0.17230763,-0.71791136,-0.011694181,-0.063570276,0.34402826,-0.19300058,0.17088151,-0.09141214,-0.27049968,-0.015621475,-0.9093306,-0.39891252,0.3111932,0.38057345,0.52021885,0.71758986,-0.3813499,-0.7122197,-0.45742452,0.93686247,0.11702464,0.14248976,-0.1526329,1.0442327,-0.15717542,-0.08700456,0.23269092,-0.23289917,1.0140531,0.23412198,0.7428415,-0.12756458,0.55819666,0.67658156,-0.0062556826,0.3914577,-0.27870852,-0.95860916,-0.19877522,-0.588827,0.33435357,-0.4036197,0.8935702,-0.41181445,0.69032645,0.29498664,-0.19204904,0.9141858,0.413325,-0.018304572,0.47997436,-0.24991363,0.49962845,-0.31463006,0.102200046,-0.16000557,-0.47985595,-1.0204996,0.08759233,-0.6261456,-0.23375252,-0.014445425,0.113130204,-0.1656947,-0.54468524,-0.35360968,0.5043707,0.581497,-0.5197557,0.67324024,0.44161248,0.6634429,0.24723537,-0.42464468,-0.48673645,0.17505974,0.827281,-0.23664673,0.010562581,0.21751572,-0.3733424,-0.7539369,0.26908004,0.05129559,0.4842216,0.08471567,-0.7531245,-0.040829465,0.910078,0.17879273
35,-0.34938294,0.7138837,-0.7342743,0.21141787,-0.20991358,-0.13423054,0.4587531,-0.30027723,-1.0122899,-0.6935352,-0.2485048,-0.7045383,-0.2092793,0.41991752,1.2872139,-0.41117218,0.008859051,-0.2800514,0.12856263,-0.306248,0.14997908,-0.3775009,0.30072865,-0.33257535,-0.32057172,0.42404827,-0.59800637,-0.7646538,-0.6840074,0.105252065,0.47475785,-0.18296017,0.65707463,0.012593286,0.40603217,0.7879245,0.69965094,0.10701792,-0.07392821,-0.54711014,0.23845896,-0.32255322,-0.09390772,0.59854573,0.13126588,0.15086198,0.4383522,-0.30573013,0.027900882,-1.7537979,0.02583282,0.025690546,-0.12449876,-1.0134653,-2.3125849,-0.3694908,-0.09865907,0.050694626,0.6014122,-0.22200933,0.4038079,-0.7197084,-0.57584167,-0.18071604,-0.5962815,0.3170523,1.3750516,-0.29504812,-0.078382164,-0.5572737,-0.0012473259,-0.52650535,0.21070756,0.27690145,0.5713996,0.18266436,0.29171842,0.2675444,-0.68866557,0.123517394,-0.38336617,-0.47119817,0.2567665,0.017070072,0.09866331,0.52206975,0.1736406,0.30791482,0.5214232,-0.76414675,-0.20888063,0.40383932,0.68964237,0.34533703,0.4026317,-0.13569498,-0.23365511,-0.08367698,-0.1713449,0.7595682
36,-0.4242509,0.12722716,0.90829,0.9782631,-0.1459116,0.7216704,0.058156345,0.7596236,0.60566694,-0.7056625,0.11757024,0.2984324,-0.9052857,-0.47422338,-0.68060935,0.55618125,-0.020679455,0.77607274,0.6209549,0.18318206,-0.0864789,-0.286642,0.3791894,-0.17358293,-1.2540668,0.029539516,-1.2077525,0.54584277,0.3457394,0.026274558,0.108271755,1.3056606,-0.13819472,0.43210438,-0.47223058,-0.71067256,0.19373906,0.1961077,0.67549926,-0.6926288,-0.5415493,-0.5256442,-0.77427995,0.26495132,-0.14669168,-0.07463983,0.1660468,0.46514508,0.17022455,0.45168152,-0.47991416,-0.9939945,0.35360318,0.49939653,-0.23307368,-0.8950127,0.5713879,0.45820454,0.27085614,-0.28937715,0.2439556,0.44362777,-0.094917506,0.08130288,0.09461141,-0.677247,0.5946339,-0.7934762,0.87767494,-0.3232147,-0.19529556,-1.1530901,0.36974844,-0.40311557,-0.16067022,0.42600244,0.14347085,0.03905878,-0.29455683,-0.2796087,0.24703503,0.4725941,-0.6593945,0.581969,0.2699689,0.39812532,0.9853044,0.5414769,0.14834246,0.94138354,0.9815932,0.6902817,-0.2923584,0.9904462,1.1146208,-0.3998087,-0.016868966,0.08990602,0.737961,0.7888179
37,-0.1811335,0.25519678,-0.9291166,-0.537814,1.0238823,-0.19483867,-0.2195171,-0.73190117,-0.17271574,0.28112033,0.131057,-0.366723,-0.30604792,0.3258317,-0.30561486,-0.3638192,-0.31142685,0.44515797,-0.68808806,0.101656266,-0.42491278,-0.10207096,-0.33954242,0.34702146,-0.34399056,0.9667465,0.018160665,0.096583225,0.3784147,0.30353087,-0.20768708,0.23630694,0.26252225,-0.27633512,-0.41475394,0.58144236,-0.081892006,-0.10381719,0.41482982,-0.4127399,-0.2501637,0.5504379,-0.13264063,0.3764102,-0.17732339,-0.8476438,0.10756054,-0.2610013,0.34829804,0.054547638,0.10706348,0.7853978,-0.0691251,-0.2649372,-0.9690029,-0.3997593,-0.25419652,-0.398724,0.15072379,0.17923424,-0.26966563,0.96171707,-0.106868856,-0.21529749,0.5528701,-0.29059887,-0.28824183,0.11857961,-0.31265876,-0.37149024,0.3620586,0.6166625,-0.36685896,-0.9919885,-0.0791019,-0.13316336,0.07174872,-1.2669244,0.12497601,-0.1284437,0.36812478,-0.07014509,0.34604302,0.38315392,-0.049824946,0.25469264,-0.74870044,0.19817278,0.3881664,-0.78277004,0.679026,0.27458286,-1.0473273,1.2018632,-0.26263925,-0.5658603,0.08711697,-0.7868569,0.97650546,-0.33091435
38,0.8799632,0.17173888,0.33840328,-0.090809904,-0.95102113,0.19878323,-0.33132485,0.21058886,-0.30172837,-0.38441253,0.449732,0.29733688,1.3525169,0.49614912,-1.1369256,1.2928624,-0.6805056,-1.0019773,0.26109862,-0.52313226,0.5723214,-0.6786844,-0.04789736,-0.047951795,0.5593626,-0.8358666,-1.0902785,-0.11838838,-1.4360489,0.3893742,1.0921669,-0.6255325,-0.07069924,-0.09368772,0.5287137,-0.07306357,0.9185053,-0.25289515,0.31750497,0.063649036,-0.087866984,-0.74185646,-0.19917431,-0.75139374,-0.26361382,0.64066887,-0.100871444,0.16084184,-0.18729095,-0.4128243,-0.73890203,-0.49966645,0.46004885,0.8069326,0.47392216,-0.19143051,-0.22922093,0.3308584,0.6461146,0.3453373,-0.20142,-0.72545224,0.43146634,-0.6277725,-0.22953218,-0.27374676,0.023904786,-0.31932968,0.52446705,0.09125803,-0.76116496,-1.048747,-0.43028677,0.53433585,0.12301425,0.70084655,0.21700323,0.8400784,-0.23566063,0.6332649,-0.5213596,0.6373112,0.54754055,0.13064195,0.5474318,-0.7448869,0.3471839,-0.07062311,0.07509736,0.554171,-0.417051,-0.8893628,0.03878329,-0.40237385,0.1748835,-0.29846525,0.25139862,0.25142947,-0.43569887,0.5839168
39,-0.40277,0.18286787,-0.39256734,-0.4126711,-0.41266125,0.06496961,0.042033385,0.48866406,-0.06251421,-0.08940398,-0.05793129,-0.07434085,-0.31518307,-0.08918385,-0.14129785,0.1863784,-0.6308511,0.15574773,0.078411974,-0.06405327,0.4160878,-0.46247125,0.82163477,-0.32322344,0.26812193,0.9542536,0.067867756,-0.06598204,0.040811792,0.40247238,1.2386643,0.4465597,-0.28664166,0.025605364,0.2520597,0.38968813,-0.028893137,0.054486718,-0.51821625,-0.86011666,-0.050072707,0.06992345,-0.27950615,0.93098855,-1.2107381,0.051541142,0.35061452,-0.4242254,-0.07152222,0.10572566,0.65662134,-0.083897375,0.70739293,0.023973199,-1.3290774,0.6647227,0.14508021,0.15911959,0.62824285,-0.046924755,0.029974615,0.060803827,-0.061440542,0.22250578,0.0653319,-1.010079,-0.16503803,-0.16290273,0.7021275,0.21656913,-0.15437634,0.28538787,0.34766334,-0.55864304,-0.08503988,-0.025178399,0.58487135,0.037346944,0.9266939,0.16164802,-0.30551177,-0.18027551,0.34556273,-0.03226192,0.2203849,-0.33639172,0.9044478,0.18142584,0.83515847,0.3993263,0.08315557,0.6003539,-0.37925124,0.96358293,0.13800244,0.7209303,-0.08006914,-0.29311743,-0.41991225,0.45593804
40,-0.012947191,0.024863997,-0.6398022,0.6914606,0.26854184,-0.7848392,0.6733563,0.84827316,-0.10028995,-0.53327614,0.2948596,-0.6759952,-0.04574937,1.2644131,0.5646679,-0.7186099,-0.25593787,-0.27537236,-0.03948616,0.92532474,-0.61577654,-0.22205481,-0.5234288,0.61898893,0.25875112,0.38746834,-0.061730366,-0.9932446,-0.17853677,0.7617627,0.91420346,0.35936013,-0.7318661,0.42951307,0.6019673,1.3227352,0.39183614,0.08026295,-0.43797246,-0.10924343,0.65617406,0.3450597,-0.5196922,0.28223944,0.10114493,0.0052352627,-0.112550184,-1.064801,-1.1144999,-1.1510702,-0.25396338,0.14346594,0.44976366,-1.3802992,0.24345258,0.62649035,0.75385535,1.0686681,0.9617228,0.03289008,0.3605487,0.11668686,0.20045385,-0.967826,-0.26748654,0.008490463,0.18661824,-0.25349545,-0.84353125,0.21314383,-0.024627853,0.17964567,0.22234319,-0.59048575,-0.699858,-0.7334711,1.1046197,0.36418894,-0.5412439,0.23876002,0.8240658,0.13736407,-0.06716799,0.089328624,-0.005593143,0.10202577,0.5362891,0.84932804,0.40008357,-0.31554928,-0.04662351,-0.05922439,0.3575601,0.51845497,0.9075984,0.12589559,-0.5157841,-0.12650955,0.39389944,0.5565482
41,-0.05808853,-0.043170005,0.22081605,0.110893436,0.75851315,-0.64820343,0.83494645,-0.059988342,0.31056687,0.1109676,-0.21069878,-0.9500187,0.80043864,-0.013155984,0.5048892,-0.38724327,0.057013728,-0.1092633,-0.42007816,0.1529813,-0.3980029,-0.036265742,-0.12707756,-0.11427541,0.8322605,0.8680873,-0.0021486415,-0.5881721,-0.2665126,0.6806899,-0.49619624,-0.73241186,-0.38989246,0.60879093,-0.83130854,-0.028665377,-0.5779496,0.10709541,0.5151938,0.2761374,0.56955737,0.24797451,1.5161539,0.6376362,0.42619,-0.0953443,-0.34866947,-0.3778788,-0.13472882,-0.4108155,0.323976,0.15630841,0.69356006,-0.18892889,1.1653584,0.34446773,-0.5281805,0.41814184,0.5567551,0.048581474,0.77266574,-1.0246599,0.3840434,-0.01836413,-0.24836816,0.2752592,-0.9091246,-1.2601246,-0.06940632,0.090011045,0.16300488,0.20816548,0.19501905,-0.41728824,-0.14932054,-0.2208838,0.1444957,0.040153723,-0.11197869,0.018184394,0.5543664,0.42085552,-0.11670827,-0.22313848,-1.1047688,0.33611023,0.059670683,-1.2852876,-0.025778858,-0.1383976,-0.4471719,-0.90108746,0.22960141,-0.036096018,-0.043831427,0.19520847,-0.8476085,-0.22333057,0.37255844,0.04418592
42,0.18735202,-0.54379535,-0.969391,0.17354423,-0.31274268,0.46201828,-0.05354637,0.07787868,-1.2722974,0.24105972,0.81271696,0.04353028,0.66908693,0.28515127,0.33522478,0.67015505,-0.29220107,0.29529136,-0.84853345,-0.5972619,-0.592648,-0.7493875,0.14035471,-0.75265324,0.30089846,-0.10232146,-0.08214425,0.27814975,0.10287628,0.56724775,-0.13891809,-0.077043034,0.014640433,-0.98584414,-0.018234823,0.6242174,-0.123802446,0.399479,-0.38040996,0.05000329,-1.2593209,-0.0219722,-0.37392184,0.43039823,0.6455497,-0.0880553,-1.0077558,0.38244548,-0.6388062,0.12636346,-0.28250438,0.45857984,-1.5384018,0.036290854,-0.69800556,-0.40439895,-1.0238982,-0.6212683,-0.3105404,0.93180615,-0.2305242,0.060375407,0.8495868,-0.30294198,-0.0842723,0.3711693,-1.5134772,-0.09407266,0.05734307,0.12289958,0.9728888,-0.23416474,-0.7948238,0.017552907,-0.25150597,-0.32430696,0.030989641,-0.4054443,0.11029537,-0.5622972,0.37834552,0.03147265,-0.16991895,1.7661983,0.44109368,-0.11056614,-0.2448078,0.12480006,0.49086544,0.1775634,0.05066564,-0.09567808,-0.4020181,0.15475468,-0.16243716,-0.016622584,0.2178357,0.41606733,0.064315714,-0.8036617
43,-0.050140914,-0.0015909069,0.38377386,-0.07805889,0.09733284,0.1847704,-0.057578888,0.21538126,0.4147698,-0.36577797,0.549459,0.8469671,-0.6945832,-0.7151173,-0.25861722,-0.06338795,-0.26407993,-0.30332324,0.6246318,-0.40182334,-0.42183727,1.3043619,0.16424832,0.8555148,0.36078548,-1.1474129,0.004692351,0.1521524,0.5214465,-0.49690694,0.01965138,-0.65083843,-0.13211013,0.05082462,-0.743462,-0.16773817,0.02538874,0.009838418,-0.26813728,0.29592493,0.05184736,-0.1408732,0.024850056,0.026303796,0.30602008,-0.23657018,-0.43645844,-0.17078975,-0.74909586,0.33186126,0.101627976,-0.029258048,0.5436387,0.15979731,0.8330691,0.41151705,-0.21430066,1.2137599,0.013592808,0.0077886223,-0.98885643,-0.21216609,0.26833776,0.22846171,0.36292318,-0.1855315,0.60337996,-0.27017587,-0.15886146,-0.07755796,0.2709471,0.4001136,0.26786304,0.42638218,0.9077491,1.327017,-1.342161,0.50657254,0.32608628,-0.106803566,-1.2601302,0.4221562,0.26382264,0.3081366,0.73647326,0.23292388,0.15170632,-0.5824277,-0.09521191,0.00030415156,0.9528322,0.012858531,1.0982134,-0.44348916,0.16093843,-0.1729216,-0.21330662,0.72922695,-0.28976476,-0.18733083
44,-0.36761937,-0.26624185,0.9019737,1.0807748,0.78361917,0.70712936,0.3565428,0.22004643,0.16129978,-0.19289243,0.001615904,-0.3941618,-0.31933236,-0.23035352,-0.81574816,-0.19292174,0.43623012,-0.08496264,-0.20621043,-0.15332836,0.72314954,-0.042391226,-0.035251155,-0.029143201,0.24787375,0.55182284,1.1417198,0.7515324,-0.689256,0.18851875,0.7656315,-0.22283815,0.409241,-0.6815273,0.43188038,-0.063160054,0.11827461,-0.82166463,-0.3265029,0.20014013,1.4343251,0.522241,-0.10835761,-0.3854959,0.18801387,-0.035290666,0.055308096,-0.12566076,0.42296416,0.10204726,0.041228037,0.2217069,0.4457927,0.41348767,0.81803817,-0.1795813,-0.19759415,0.46080256,0.8888351,0.022106301,0.07898903,0.13617694,0.14793399,0.23422611,0.52400917,-0.7975721,0.29257286,0.40749562,-0.020072658,1.0892946,0.6282544,0.9329786,0.16128618,-1.3483198,0.23052737,0.5632709,-0.15491846,-0.22421804,-0.36249155,0.095402114,0.17417917,-0.005070199,0.14056289,0.57490593,0.4232222,-0.19644581,-0.3259161,0.44183064,-0.82940775,-0.32548952,0.6181282,0.63872445,0.31709823,-0.681196,-0.054480165,-0.9157104,0.078847304,0.10642008,0.21724217,1.035387
45,-0.5020795,0.04101735,0.5172069,0.13209231,0.16635877,-0.28977987,-0.12627436,0.9315573,0.06189465,-0.37402597,-0.07543351,0.3580031,0.27914128,0.3516313,-0.12868668,-0.17710537,1.0456423,0.41019586,0.47384456,-0.07092312,-0.017384196,1.2591435,-0.92208886,-0.15136603,0.021690989,-0.19760084,0.2555874,0.8414068,0.2004932,0.014914016,-0.5167658,-0.08155036,-0.15891722,-1.5253366,-1.1186051,0.5537473,-0.6684324,0.38058698,-0.3439115,0.066760294,0.28551012,0.43396667,0.121754915,-0.3989159,0.049675107,-0.3365664,-0.38690352,-0.20513949,-0.13690336,0.8326366,-0.38157982,-0.43019354,-0.537008,0.5295728,0.40723538,1.1031913,0.99956834,0.37231612,-0.03218998,0.32225433,0.7010937,-0.07731749,0.28098464,-0.21274994,-0.7424716,-0.8036659,-0.39572117,-0.46020573,-0.035680644,0.7844986,0.2395124,0.103432275,-0.03215604,-0.19923271,0.5660972,0.19954742,-0.41276866,0.030729115,0.12411704,-0.41527107,-1.1880889,0.29998854,-1.0222613,1.0407135,0.16121228,0.017740292,0.9309236,-0.4248301,-0.39936358,-0.04760291,0.18146925,-0.48501,0.67392445,-1.0430081,0.015529979,-0.36575818,0.5095598,0.1719216,0.30986103,0.34318006
46,-0.21033424,0.3005813,1.1385875,0.38319126,0.3683595,0.082907364,0.0007973321,0.49508542,0.43308768,0.4268996,-0.13055421,0.2783778,-0.043460954,0.56627375,0.017648797,0.21583891,-0.37701276,0.35995558,-0.9453292,1.115584,-0.3610217,0.40523916,0.4527812,0.6720034,0.110619836,0.94092286,-0.001962296,-0.22602487,0.80601984,-0.078507096,-1.2608631,0.41104308,-0.29355794,0.011396422,0.14756115,-1.0047615,0.024454087,-0.44238093,-0.35767582,0.046750158,-0.41589552,0.044253636,0.25865954,-0.08852872,-0.047199905,-0.20877439,0.1907142,-0.6984293,0.058437537,-0.36655918,-0.039965667,0.43760005,-0.59242696,0.18249074,0.54150426,0.8133611,0.6908226,-0.1905486,-0.9360352,-0.13748397,0.38454014,0.374615,0.7147315,0.8912394,0.5660898,0.9253771,-0.064743035,0.07854039,-0.7114329,-0.3596774,-0.08867008,0.39976138,0.3296468,0.0006948802,0.5323315,-0.6627727,-0.6468554,-0.3639017,0.2909228,-0.30773845,0.7851925,-0.3468963,-0.14536247,0.20538068,0.6321093,-0.9073168,0.16282421,-0.3605471,-0.6635848,0.85616463,0.049563378,0.2568096,-0.07537357,-1.110104,-0.60018015,0.10609502,-0.09929415,-0.038241062,-0.11715232,-0.21908113
47,0.5008823,0.033703364,-0.14046057,0.04240552,-0.4157943,1.1145732,0.23287912,0.37191167,-0.018016359,-0.105671264,0.4623949,0.024178872,-0.23524855,0.13196726,0.6158263,0.22023727,-0.3367532,-0.12630959,-0.06787426,-0.3592644,-0.5097829,-0.38653985,0.115668185,-1.0984817,0.094304174,-0.18084799,0.252345,0.6713483,-0.13250585,0.044041116,0.29850155,0.16710928,0.15004939,-1.0741403,-0.2930448,-0.01974753,-0.048311245,-0.21611658,-0.86372405,-0.030669468,-0.012231465,0.09315934,0.1787811,-0.08232945,0.8129099,0.078233294,-1.1731229,0.11732157,0.012657447,0.17619552,-0.07293189,0.6454692,-0.05419532,0.12885098,-0.17665488,-0.09229087,-0.3000781,0.114628755,0.48157135,0.86567235,0.20370898,0.41815895,0.50405914,-0.8271536,-0.061062723,-0.36044186,-1.2725049,-0.0567975,0.51890564,0.5466159,0.72276,-0.69899046,-0.82924706,0.03594896,-0.4594311,-0.4180735,0.03356075,-0.3708017,0.08439187,-0.2240905,0.48931855,0.3798601,-0.9079295,0.35139832,0.19734457,0.043776374,0.41790217,0.3091481,0.13769759,0.054044284,-0.41932976,0.115533926,-0.10734332,0.3436104,0.32534793,-0.64862996,0.17333232,0.51652634,-0.09728679,-0.028300881
48,-0.5478184,0.49151552,0.76326907,0.40700793,-0.603554,0.15783425,0.215763,-0.30510986,-0.26904303,0.26177794,0.3364176,-0.090675,-0.84195876,0.43093815,0.8446415,0.057213295,-0.3660386,0.29970288,-0.765761,1.160589,0.026488334,0.56407934,0.6363924,-0.52779275,-0.1538959,0.514912,0.24156512,-0.53500396,-0.6704347,0.10084221,-0.6212408,-0.60308987,0.6546332,-0.095095046,0.17698103,0.7891093,0.31757697,0.4778962,-0.63174486,0.22490649,0.09736045,-0.11413363,0.06562367,-0.06582516,0.111087166,-0.7286604,0.548596,-0.108458646,0.77640605,-1.1960288,-0.06145602,0.4491545,-0.68190575,0.31940228,-0.45941362,-0.39021733,0.4352022,-0.5462272,-0.4151917,-0.5594147,0.6602995,-0.2655009,-0.60242736,0.6219049,0.27864453,0.63281053,0.423018,-0.6705647,-0.3854564,-0.4249058,-0.26661995,0.5387933,0.507567,-0.21395884,0.681241,0.722325,-0.35468844,0.29351133,0.32684287,-0.12708761,0.5138238,0.010804447,0.05908182,0.05990079,0.6857477,-0.18772797,0.3053768,-0.33787447,-0.34808132,0.15901372,0.023365293,0.98017454,0.3868745,-0.6893323,0.5916545,-0.03549997,0.1168926,0.3247775,-0.28905472,0.6163553
49,-0.3707032,-0.018603457,0.6675155,-0.81623703,0.48292738,-0.16116542,-1.0136368,-0.095704846,-0.19354503,0.252232,-0.4225858,-0.44371524,0.64475256,-0.1364289,0.047404192,0.6177036,-0.39233336,-0.41621208,-0.16798812,-0.92865205,-0.028211845,0.5257561,0.13053325,-1.6686124,0.49545953,0.81576085,-0.19730099,-0.027094211,0.06433714,0.33172134,-0.1478305,-0.20677206,0.015490584,-0.2481755,-0.25693655,-0.9447234,-0.3905015,0.6599379,-0.52953166,-1.1676629,-0.2120827,-0.13362488,0.5887128,0.8842887,-0.46173525,-0.3547854,1.0203911,0.49392414,-0.08450773,-0.20516998,0.6977064,0.010888163,0.23746528,0.43744746,-1.084765,0.765225,-0.15986699,0.039777152,0.090508446,-0.13706242,-0.16347454,-0.26503435,-0.009468406,0.6769562,-0.05868902,0.5467183,0.05656963,-0.30070174,0.6801375,0.44018787,-0.19390675,0.6124698,0.057833135,-0.4747963,0.5943226,0.28645754,-0.591766,0.3779582,0.24445663,-0.15079807,-1.3751214,-0.049993422,0.6907798,-0.3281312,-0.1037935,-0.14204903,0.23732828,-1.1933668,0.39552537,0.066151746,-0.97947055,0.20970355,-0.476398,0.93582404,-1.3091327,1.0663171,-0.36228514,0.1889777,-0.05553267,0.14314555
50,0.19135773,0.13025062,-0.7062269,0.57690376,0.24334352,0.1864944,-0.0105375685,0.20142086,-0.20493565,-0.31415504,0.31267828,0.07900031,0.2503397,0.101847745,0.20785658,-0.12713273,0.24734211,-0.50062627,-0.20079027,-0.33120662,-0.5573961,0.22374956,-0.028439933,0.16923635,0.14638135,-0.48480582,0.09286145,0.2553967,0.22832972,0.773255,-0.45938447,0.89293003,0.67284656,-0.14961119,0.085418016,-0.14495933,-0.14007512,-0.51467806,0.064547114,-0.1412906,-0.2646211,-0.41506687,0.39060247,0.08082604,0.88291746,0.42137387,-0.6782412,-0.4297164,-0.094194815,0.70037925,-0.41143367,0.7070625,0.10434458,-0.2700857,0.2835944,-1.1761081,-0.61912006,0.14718473,-0.28880537,0.40503398,-0.052048296,0.59050477,0.5042568,0.07470954,-0.46478105,-0.0063420148,0.25074208,0.53767586,-0.3064918,0.025095196,0.60395205,-0.15355538,-0.7769138,0.38863355,0.010548757,-0.75298613,-0.13289632,-0.19474699,-0.74660647,-0.12691855,0.08764302,0.064715445,-0.38228786,0.36651805,-0.41283062,0.57163507,-0.57956934,-0.026037835,0.33184,-0.04801571,0.06271467,0.0566174,0.19435164,-1.2089652,-0.37700987,-0.6349913,0.3066658,0.47779843,0.32693875,-0.30750668
51,-0.6398707,-0.49131036,-0.21856232,0.5651493,0.17067875,-0.9282523,-0.29619458,-0.12418476,-0.06693253,0.33112338,-0.08393404,-0.65102935,-0.20952621,0.2530097,0.6493976,-0.055604972,0.30542982,-0.2146912,-0.054754376,0.27403453,0.86587286,0.32034734,-1.080504,-0.042859323,0.076083206,0.7898865,0.48931563,0.56319296,0.51163876,-0.108871534,0.03300728,0.6216157,-0.10226486,0.32767525,0.22179602,1.0180639,0.01901219,0.24173538,0.18997325,-1.1927288,-0.053200614,0.52027035,0.26256636,0.44277307,-0.22400384,-0.40447694,0.20375869,1.0658522,0.40112072,-0.28871393,0.010119201,0.21655557,-0.53374267,-0.108356535,-1.3659376,0.2025781,-0.4713233,-0.3047134,-0.51960963,-0.023407929,0.018194964,0.098011315,0.27707192,0.16180007,-0.0545626,0.70863533,-0.37786934,-0.41654223,0.30646825,0.0073290295,0.50439876,0.07146612,-0.001424929,0.028424077,-0.1397428,-0.2967887,0.76883435,-0.18463919,0.082578465,-0.04936456,0.55961853,-0.5336344,-0.7055107,-0.032634556,-0.16618872,0.043165073,0.109653845,1.5383941,0.14343092,-0.78891397,-1.0131403,-0.17459382,-0.5337626,0.47504255,-0.16675845,-0.68166184,0.6165611,-1.3226041,0.20586984,-0.27329707
52,0.84962493,0.8058179,0.7183895,-0.55129886,-0.51755595,0.4342346,-0.116918415,1.0460488,0.5396659,-0.522078,0.30183953,-0.22696559,0.6394186,-0.11065064,-0.18379776,-0.054513108,-0.21933103,-0.55772996,0.56370777,-0.124991514,0.484818,-0.292185,0.34060568,-0.5293263,0.34051433,-0.16417088,-0.5081211,-0.32554823,-1.2345343,-0.11048713,0.8381104,-0.654877,0.32262114,0.045344222,0.602415,-0.869778,-0.19795978,-0.3177131,-0.35174713,0.28636077,-0.4417038,-0.9056336,0.15112591,-0.29716098,-0.14478119,0.7436005,-0.11863683,-0.3070516,0.013633385,-0.036973715,0.17265068,0.4399568,0.13624832,0.02091491,0.7681176,0.0052957414,0.5749537,1.4768605,0.5538884,0.4916873,-0.03179929,-0.3834663,0.9116255,-0.12917544,-0.11969143,0.30273095,0.45152846,-0.11955714,0.48318118,0.6407394,0.07453596,-0.64501995,-0.5182563,0.7484137,0.275512,0.77514523,-0.26564556,0.7201311,-0.43460095,-0.10913869,-0.26435918,-0.2515592,0.07166659,0.22826299,0.26302734,-0.2014466,0.119582,-0.59918755,-0.376903,0.50177985,-0.18124549,-0.17418902,0.95171267,0.0570033,0.31382614,-0.15172982,-0.063848585,0.48395702,-0.22044918,0.13577487
53,0.35416946,-0.49128252,-0.42917266,-1.0545949,0.113614604,0.41635597,0.2594179,-1.0630547,-0.024757404,0.8267565,0.27336138,0.49224544,0.003808957,0.8089441,-0.0867109,0.50478464,-0.5303866,-0.6860143,-0.32971537,0.19748522,-0.14781353,-1.222707,0.5969954,-0.1249489,-0.5003637,-0.4790166,-0.11697613,-0.7244212,0.1500427,0.13175869,-0.11534479,-0.13122478,-0.15247884,0.2924399,0.1458781,-0.5184202,0.2531308,0.12351954,0.73921865,0.16266121,-0.5876172,0.08309584,-0.2574055,0.19805978,0.17499886,-0.2838946,0.1249886,0.49559247,0.83910954,0.08853277,0.059489105,0.08449419,-0.10643994,-0.2776619,-0.52058715,-0.64700687,-0.8901944,-0.6935561,0.0002882467,0.014938752,-0.2868731,0.22433612,-0.5970029,0.28085527,0.34099048,0.44596735,-0.47555903,0.15010066,-0.04990264,-0.8420291,-0.11576459,-0.24383487,-0.006571635,0.20651925,-0.21719705,-0.053040564,0.051822253,-0.1159215,0.34959245,0.27955824,0.43544397,0.0041565457,0.6960683,-0.5347087,-0.11246914,-0.08946127,-0.37821925,0.46034127,1.2612692,-0.0082855215,-0.024342675,0.26808023,-1.6265903,0.32802218,0.008449019,0.45754403,-0.053321287,-0.42343137,-0.36852133,-0.17146908
54,0.36120665,-0.6696038,-0.70566165,-0.6233845,0.20829421,-0.8693321,-0.07971569,0.08335008,0.07577533,0.35453677,-0.32133013,0.31785697,0.36113048,-0.40579993,-0.36491534,0.39437282,0.11331975,-0.09074548,-0.85264087,0.5907754,0.13103063,0.0099677,-0.21332937,0.46721753,-0.3609361,0.3333346,0.114239864,-0.14461063,-0.16082269,-0.15890427,0.05930994,0.009351928,-0.37358794,-0.05279842,0.110247515,0.0946519,-0.7341763,-0.45866078,0.35095158,0.37476808,0.059836563,-0.050530378,-0.18648253,-0.7579158,-0.11857796,0.06965682,0.72178656,0.019457873,0.29130086,0.22453587,1.5014898,-0.24550982,0.42627195,-0.40446988,-0.28142315,-0.64747816,0.4942317,-0.06504652,-0.5734461,0.2529889,0.113330595,0.36769816,0.22595048,0.28505662,-0.4631622,0.21979456,0.7654444,-0.24757843,-0.43921095,-0.8254585,-0.06635883,0.5899585,-0.35924166,-0.23696847,0.040170014,-0.17767872,0.32413107,-0.07403603,-0.279986,-0.19233245,-0.075408034,0.62043804,1.5807462,-0.6231914,0.3598643,-0.35056248,0.06524027,-0.06334747,-0.7814604,0.65873504,0.53761536,-0.44595242,0.34435135,0.63673085,-0.739331,-0.09075935,0.48922822,-0.2971583,0.32836843,-1.0572752
55,-0.09889906,-0.11291132,-0.24707761,-0.27468362,-0.53207153,-0.21050854,-0.16528909,0.4690879,0.024959264,0.17138019,0.08892883,-0.17476586,1.4237019,0.27046,0.3609387,-0.015899,-0.066007674,1.0381849,0.15223664,0.547779,0.9853353,-0.61507595,-0.11037492,0.05271003,-0.481189,-0.1155344,0.19941974,0.04756035,0.1124446,-0.20395945,-0.45303613,0.08529416,-0.12966612,-0.14191613,0.74696267,0.09943434,-0.111339144,-0.11368163,0.07427726,1.2684112,0.02128748,0.58607566,-0.4194803,0.2737338,-0.20233567,0.4103751,-0.5771108,-0.11933327,0.77449757,0.5324305,0.22181562,0.15823257,0.22662157,0.070226505,0.35925853,0.080125645,0.40555745,-0.9646096,0.09084952,-0.41846097,0.40816644,-0.24608514,0.02915818,-0.6579195,0.19871949,0.20246923,-1.4181414,-0.0013442988,-0.10790348,-0.15026088,-0.40744364,-0.028408675,0.019726675,0.0066908174,-0.48287803,-0.24327917,0.7918398,-1.0619556,0.0925512,-0.28886998,0.8747676,-0.12045495,-0.08359261,-0.07641169,0.26184407,-0.3966728,-0.15718186,0.8462196,-0.39875385,-0.021776283,0.16003333,-0.19483624,-0.42436805,-0.047770046,0.49735984,0.4698823,1.5259576,-0.6154598,-0.57064307,-0.108640075
56,0.37784255,0.9788714,-0.28581765,-0.03773345,0.4357005,0.00214446,0.35728732,-1.019095,0.2806131,0.15374567,0.043046933,0.065257065,-0.23279941,0.1291664,-0.28191313,-0.6550532,0.26558527,-0.5182235,0.0030492598,-0.13014863,0.3084239,0.7527646,-0.262797,0.30403194,0.23015408,-0.3570274,0.036036387,-0.23651204,-0.5092109,-0.6337455,-0.10547297,-0.92844254,0.5689141,-0.032571517,-0.18207227,0.8544614,-0.1325653,-0.7047758,0.110996425,1.0591499,-0.27125058,0.22887425,-0.045783725,-0.3852632,2.0482006,-0.1512002,-0.60200185,-0.5133468,0.07586794,-0.3497655,0.17309418,0.34476086,-0.67669344,-0.04438253,0.6884258,-0.3041888,0.028563313,-0.06306046,0.11451232,0.56182563,0.35859957,-0.37274006,-0.99846387,-0.13048206,0.11327531,-0.07195504,-0.18785459,0.14883763,-0.37763846,-0.28372058,0.39715207,0.06952475,-0.39167324,0.4559082,0.117584564,0.6622978,0.7558472,-0.16086145,-0.11886997,0.11593254,0.15263672,0.7010447,0.053787615,-0.321692,0.0022527422,0.19801529,-0.664973,-0.1278944,-1.4295851,-0.6577194,-0.28114632,-0.5514665,0.4418976,-0.24874125,-0.39125305,-0.75460476,0.1275517,-0.3904213,0.31858966,-0.93077785
57,-0.025747523,-0.5335713,-0.21823664,0.024928508,-0.22177473,-0.27952695,0.14672342,0.98016,0.14658819,1.6016444,0.4633722,-0.24287431,0.5658602,0.6957005,-0.22230479,0.5685752,-0.34408295,0.28328142,0.46923512,0.3030486,-0.116877384,0.86464083,-0.3882434,-0.67444134,-0.3038394,0.009374982,0.39298487,0.33792484,-0.25309017,0.40790883,-0.0021037594,0.037295207,-0.90870637,-0.7501636,-0.45786706,0.2060121,-0.48389882,0.60274065,-1.5408831,-0.290481,-0.41053012,1.4719987,-0.3387006,0.41053665,0.24543731,-0.9999233,0.1806221,-0.2164373,-0.47860375,-0.49102473,-0.25768706,0.06737652,0.7159918,-0.025432928,-0.2509122,-0.3195278,-0.49685624,0.086624295,0.33186695,0.26100123,0.8881377,0.7622064,0.042279307,-0.14757398,-0.9789223,-0.06892709,-0.29223037,0.32084218,-0.46228403,0.31897742,0.13932821,0.08838493,0.060884587,-0.34995994,0.8442718,0.5202679,-0.53644466,-0.07847573,0.9339273,-1.7068965,-0.17915414,-0.43632075,-0.64305395,0.58015406,0.19427586,0.04035548,-0.49598157,0.41391462,0.030114623,0.44417605,-0.16477367,0.19847102,-0.26369762,0.3666384,0.16162623,-0.14508341,-0.097234786,-0.66715133,-1.2344329,-0.10675742
58,0.22596258,-0.0063059973,-0.789035,-0.5913678,0.14004171,-0.06658571,-0.11983525,0.662456,-0.47426313,-0.31371832,0.41894838,0.3161415,0.045191776,1.330487,0.13085285,-0.23199783,0.050705258,-0.30097055,-0.15290314,0.41881818,-0.22234735,-0.20293127,-0.85571027,0.81559765,0.70566046,-0.08294582,0.13830103,-0.23571603,-0.1365501,0.16604999,1.0500151,-0.122645915,0.20572098,-0.8542012,0.6938626,0.9628928,0.7486506,-0.39030683,-1.0416329,-0.11216472,0.8774054,0.6824927,-0.63411176,-0.47273517,-0.22576228,-0.14863938,-0.29163182,-0.9050017,-0.7885535,-0.05572551,-0.5517452,0.6582446,-0.98821616,-0.7767295,-0.014257569,0.99651223,0.43696827,-0.20105045,0.19357312,0.051820155,-0.3047826,0.47768563,0.17194436,-1.0230151,-0.06659243,0.20901401,-0.05428032,1.6507608,-0.99670005,0.38988292,-0.01706391,0.32956156,0.09296265,-0.044815633,-0.6665595,-0.48840696,-0.19022523,0.73628885,0.19267851,0.24524935,0.1464972,-0.528176,0.2543194,0.30102587,0.58411944,-0.95542365,0.35344082,0.8062429,0.56950194,-0.08189018,-0.14459112,-0.3175968,0.20646437,-0.051485952,-0.07899405,0.4075117,0.5760096,0.017116737,-0.5728957,0.35164973
59,0.36559308,1.1067148,-0.27103522,0.9467891,-0.3160961,0.09575991,-1.0676677,-0.1814299,-0.4547708,-0.87548155,0.35927054,0.64377713,-0.005334156,-0.03932329,-0.98725265,0.6121433,-0.8999025,-0.07187259,0.4884781,-0.5085937,0.3744683,-0.05999869,0.11774318,0.96134824,0.01841793,-0.8370207,-0.13837655,1.0659591,-0.123308234,-0.37034857,0.21594599,-0.10378833,-0.18976565,-0.8586142,0.16389601,0.14465111,0.37994838,-0.9250679,-0.34381127,-0.89560103,-0.26212794,0.20361005,-0.32204452,0.15423952,-0.76006645,-0.051043518,0.035543665,0.07788931,-0.11151765,-0.02199123,-0.85467845,-0.25547814,-0.29920828,0.26273003,-0.44496703,0.3545329,-0.8070661,0.2956641,-0.86618763,0.071809575,0.2536912,-0.008249013,-0.19170876,-0.47053474,0.8068301,-0.1836609,-0.67740923,0.840342,0.3778458,-0.7888231,-1.0548306,-0.43556997,-0.09517382,0.6217423,0.6865266,0.6081384,0.19459093,0.42844903,-0.26118028,0.38119936,-0.93312633,0.73406744,0.58696204,0.36876643,0.25789413,-0.059715167,0.12803479,0.7478439,-0.7960267,0.14275505,-0.029936278,0.6697763,-0.03010382,0.13675743,-0.020284532,-0.75262284,0.49678,-0.765842,0.24725837,-0.0046686153
60,0.73227066,-0.22634469,-0.5926325,0.06917577,-0.65416145,-0.0020568897,0.019281866,0.7023521,-0.3220491,-0.62796146,0.81841385,0.12899075,0.053044382,-1.2405169,0.9309112,0.23203501,-0.12636791,-0.38371295,0.16749915,-0.07271302,-0.80161196,-0.42422804,-0.77109355,0.034480993,-0.86341846,-0.27783704,0.225725,-0.57521445,0.7265495,-0.3739894,0.068464324,-0.72296286,-0.104055285,0.77723706,0.6218456,-0.027227063,-0.85612285,0.5719775,0.19749908,0.26487327,-0.2947454,-1.0248578,0.5038199,-0.35620585,-0.9316535,0.4339932,0.67497414,0.20425825,0.002967367,0.06830935,-0.16523828,-0.44215924,0.45642853,-0.60514396,0.54361933,0.31214222,0.40389842,0.22625583,0.22604261,-0.36788982,0.00852774,-0.34544054,0.21678305,0.55656,0.061840802,0.2458518,0.35391504,-0.26328835,0.2779963,0.5826551,0.19670591,-0.3024608,-0.34910277,-0.2742771,0.173887,-0.48839673,-0.35510403,-0.53264713,-0.7038858,0.4110062,0.3280531,-1.0709808,-0.21368417,0.30230397,-0.04043077,-0.30238548,0.22587265,0.058565255,0.36646128,0.33511534,-0.01651483,0.46539453,0.549751,-0.5398396,0.1888247,0.8894433,-0.33522126,1.9053779,-0.43167225,0.036552984
61,0.07956639,0.007336098,-0.22894889,-0.054555465,0.18998373,-1.225258,0.45360312,-0.5823862,0.76621354,0.36548564,-0.18236989,0.35522455,-0.58527815,0.20083639,-0.44230095,-0.8347216,0.8842264,-0.07565473,0.1395917,0.45066306,0.4763614,0.5293283,-0.13588972,0.74110043,-0.053367622,-0.6625639,0.24083613,-0.1358335,-0.17420937,-0.32402813,-0.10335604,-0.19044982,-0.491635,-0.059126887,-0.2320079,0.24019825,0.102778114,-0.8811105,0.33841607,0.5526663,0.2058586,0.7032575,-0.5287964,-1.2694185,0.86375153,-0.09201823,-0.69310814,-0.21902977,-0.33533192,-0.3808699,-0.3088451,0.0076028104,-0.7651755,-0.2821305,0.978355,-0.89581245,0.6867023,-1.331823,-0.3153455,-0.22626922,0.43308547,-0.07845085,-1.2595152,-1.0021228,0.19034673,-0.053215157,-0.1450836,0.3963452,-1.4215778,-0.38800767,0.14698718,-0.049392134,0.23600619,0.7617328,0.10312957,0.009471274,0.40469214,0.53975457,-0.006982872,0.0033163624,0.23252584,0.19565642,0.41452822,-0.3212091,-0.11785528,0.18818223,-0.7002816,0.06916865,-0.552321,-0.36589026,0.4632951,-0.32893294,0.25752765,-0.16931354,0.10247174,-0.95743126,0.38248226,-0.3014924,-0.032390647,-0.75248945
62,-0.04025881,0.7488154,0.36870256,-0.52660483,-0.18539396,0.5393473,-0.37642148,0.11659797,0.9784732,-0.9046408,0.06777443,0.24906003,-0.30285057,-1.0445081,-0.65743285,-0.16900538,-0.49446878,0.24276362,-0.09907018,-0.13655879,-0.266404,0.5371603,-0.0907834,0.18744293,-0.25654417,-0.14753291,0.027980724,-0.19391379,-0.40537372,0.5077433,0.15978631,-0.3338557,0.65266895,0.4303955,-0.15276705,0.033751883,-0.20147601,-0.46451783,-0.67149067,0.11288948,0.42359316,0.31319252,0.07092799,0.055409323,0.042499915,-0.27836567,-0.032773457,-1.312556,0.18973333,1.1204258,0.5020494,1.5282001,1.0984672,0.34886137,0.21642086,0.19673012,0.20454702,0.6757442,-0.092672415,-0.061413962,-0.37268654,0.49427387,0.2821977,0.8794915,-0.050949413,-0.934745,0.49653956,1.2116574,0.45164442,0.5188012,-0.12797101,0.13962848,0.083978206,0.29664263,0.3383408,0.9331721,-0.27881286,0.20897184,0.1632752,0.022220878,-0.5348682,0.19417055,-0.38468462,-0.3865236,0.2767104,-0.23154803,0.11318693,-0.0047284146,0.026097251,-0.31604776,0.17259039,0.2729898,0.57807064,-0.8031738,-0.020192865,-0.16906823,0.33880737,0.60993844,-0.49136063,-0.21184592
63,0.33051583,0.30983475,0.45325807,-0.42590496,-0.4797847,0.83232486,-0.2617867,-0.035667736,0.33410844,0.23584236,0.52670044,0.45580038,-0.16356649,0.31402105,0.08254826,-0.16882585,-0.6769262,1.201424,-0.08588861,-0.4424588,-0.12649769,-0.13951486,0.18656577,-0.6918515,0.11811661,0.10985532,-0.1540442,0.41753155,0.16354883,-0.25025436,0.5940941,0.23804927,0.49243662,-0.044892278,-0.275352,0.48482996,-0.16743577,0.8544245,0.30110198,0.5362512,-0.13129167,0.54573333,0.07426186,-0.075294174,0.20033257,-0.43688747,-1.0909607,0.28481072,-0.071574,0.39470163,-0.1735176,-0.07175411,-0.15097615,-0.12762666,0.61572564,0.34571984,0.09205359,0.112567626,0.22903906,0.59643596,0.3021008,0.93358624,0.06759683,-0.5431961,0.1351721,-0.70993704,-1.115436,0.74100286,0.5512685,0.2633289,0.20134985,-0.49524933,-0.07720539,-0.20409031,-0.078681916,0.102496214,-0.25427184,-0.60508215,0.18808669,0.097504176,0.35806304,-0.38529816,-0.9130519,0.49632007,0.04890508,0.6381557,0.4997449,-0.1459022,0.051092017,-0.24199003,0.32214892,-0.08552049,0.1434666,-0.20028695,0.6983638,-0.52732444,-0.13661343,0.05475158,-0.29846182,0.49844906
64,0.08970264,0.578423,-0.2715994,-0.5240432,0.12766272,-0.80161124,-0.14773428,-0.19056293,-0.2932827,0.2364341,0.052042395,-0.7456295,-0.08816498,1.24672,0.30797276,-0.45350987,-0.3044235,-0.17048317,0.007985512,-0.3687328,0.14504988,0.59422904,-0.10653856,-0.45108134,0.26642248,-0.28649226,0.10775787,0.19377987,0.08289067,0.10002296,0.046316322,0.60451657,-0.386129,0.6680691,-0.2575464,0.13770244,0.109632775,0.35421863,0.85341674,-0.5392518,0.043073166,0.1241311,-0.12918405,0.14457072,0.26270255,-0.28961644,0.18342012,0.22752286,-0.5223432,-0.46219835,0.06314223,0.24834166,-0.14537185,-0.03859592,-0.4766116,0.25714344,-0.23759973,-0.9112084,-1.0656506,0.050774522,-0.2990879,0.07572671,0.21159567,0.476087,-1.3084067,0.39071617,0.5382352,-0.9886207,0.977691,0.3039223,-0.17074294,-0.7333801,0.06878047,0.6307514,-1.0041928,-0.6109641,0.42914906,0.54879093,-0.06402398,-0.16158384,0.09731438,-0.15168713,-0.38721702,-0.5937062,-0.062679105,-0.06066656,0.21701652,0.39675066,0.41592732,-0.18555564,-0.33572078,-0.39976388,0.015365954,0.6120128,-0.0164714,0.05481177,0.36089274,-0.4706574,-0.34694234,-0.5350377
65,0.08699303,-1.0240848,0.603755,1.5221255,-0.09543722,0.2674707,0.3307525,0.34779838,0.14309742,0.19741672,-0.17818841,-0.43494675,0.1972172,-0.18888523,0.32491606,0.496173,1.4549592,0.14446484,-0.11289377,0.5242885,0.60175973,-1.0931334,-0.3884283,-0.21222529,0.021039514,1.4748011,-0.048879087,0.6193788,-0.15739943,-0.1459033,-0.11519684,-0.33169225,0.39294285,-0.5020358,0.6881519,-0.11965698,-0.59989196,-0.00060151,-0.47421378,-0.099729225,0.33627668,0.014849329,0.15645325,-0.34751153,-0.47659504,0.07685543,0.12880452,0.4677433,1.1551995,0.1261077,-0.19842088,-0.2236564,-0.53707796,0.20489328,0.09794548,-0.4970183,0.18996742,0.07106026,0.3956096,0.26808414,1.234203,-0.0069704126,0.016577786,0.054964054,0.3997124,0.04681816,-0.69437975,0.35607636,-0.08160336,0.4818827,0.5026795,0.5434738,-0.059356887,-1.3463305,0.05011586,0.20742507,0.275989,-0.46713093,-0.06390698,0.12270195,0.9348256,-0.4181772,-0.5083691,0.8018616,-0.23112854,-0.23878208,-0.07560587,0.7043281,-0.54235685,-0.05144407,-0.88416874,0.14078398,-0.09623375,-0.4684885,0.100759715,-0.20255226,0.034603357,-0.077655725,0.38236055,0.481539
66,-0.5617209,0.71374923,0.3717045,0.89357495,1.4978093,0.40259477,-0.1592215,-0.44488248,-0.22252588,-0.48087245,-0.22963937,-0.119287945,-0.6271626,-0.26706457,-0.6827707,-0.36152604,-0.06819663,1.5461766,-0.3942849,-0.27766922,-0.5226433,0.783321,0.5062444,0.17425926,0.20466328,0.34708598,0.86924946,1.2095528,0.78403366,-0.03692029,-0.28261396,0.11779149,-0.08921348,0.108048685,-1.9190229,0.22217539,0.21048988,0.13023774,-0.108866796,-0.22251879,0.5930342,0.45870054,-0.0887692,0.42541727,0.09287671,-0.48663783,-0.51371485,0.1621788,-0.18937486,0.45157883,-0.051721398,0.36075678,-0.016781662,0.90714526,-0.18173242,0.21233435,-0.22030728,0.38196602,-0.2481958,0.052823998,0.338484,0.74256617,-0.29544404,0.18338108,0.57521707,-0.6637536,-0.3287339,0.013108292,0.07343366,0.28588665,-0.61572176,0.39118963,0.17890325,-0.52244836,-0.02478613,0.34780326,0.09806589,-0.7925079,0.71141165,-0.107494965,-0.5749563,0.51417994,-0.007430031,0.17186125,-0.057387322,0.86717844,0.4043054,0.31105196,-0.32801756,-0.95114917,1.3002478,0.13933323,-0.23383413,-0.12572998,0.1212985,-0.2726332,-0.520835,-0.67531,0.2223524,0.36652496
67,0.47405204,0.2284605,0.015511495,-0.16592886,-0.45597142,0.23953937,0.2620025,0.54924625,-0.1865596,-0.015838986,0.66807973,-0.2119828,0.6921374,-0.6071681,-0.02356825,1.2547331,0.19225036,-0.0063134544,0.37357062,0.2327722,-1.031206,0.42432785,0.29981408,-1.3111871,0.03556396,-0.19738898,-0.21356128,1.0880795,-0.49180427,1.0212526,0.2105669,0.020845847,-0.5152949,-0.6261297,-1.120296,-0.80231625,-1.1582389,-0.06673086,-0.21772934,0.14625798,0.7143033,-0.4418248,-0.31139994,0.5658928,0.3486366,-1.2142941,-0.06507863,-0.09585054,-0.41947052,0.030132622,1.0577182,-0.40627757,-0.08387097,0.10450997,-0.014097369,0.35413134,-0.46034,-0.51425433,0.8117115,-0.83072096,0.42332044,0.23171593,-0.53797877,1.0561711,-0.020111065,0.05808974,-0.18504593,0.15567558,0.59980667,-0.3440649,-0.60776085,0.1821352,0.047953162,-0.5564108,0.86721265,0.42938954,-0.3543699,0.2726561,1.189586,-0.27844405,0.011529131,-0.40678516,0.10572039,0.07919037,-0.1244845,0.19358885,0.19900237,-0.39795035,0.3597678,0.13989513,-0.6435399,0.6642129,-0.051663466,-0.19218582,-0.980865,-0.021410655,0.539948,-1.1780541,-0.98493207,0.027529683
68,0.30258775,-0.16701354,-0.69177973,-0.24173476,-0.22444245,0.018514408,-0.22138779,-0.2274554,-0.38929012,-0.08710044,0.07754126,-0.590429,-0.16778192,-0.396823,-0.28123665,-0.28558698,0.5171525,-0.43129432,0.8163898,-0.51373106,0.61886203,-0.24882397,-0.5638327,-0.4475274,-0.22641116,-1.2015065,0.142635,0.46930304,-0.4172009,0.11057643,0.971318,-0.6457864,0.17240784,-0.08417884,-0.10707977,0.64900327,-0.2861393,0.19969726,0.1714552,0.09488107,0.64814156,0.20321362,-0.26577622,-0.056167565,0.1847836,0.0044473554,0.10123098,0.65611386,0.10097643,0.6148792,0.083361514,-0.50611264,0.28637618,-0.0036515633,-0.007853737,-0.93005145,-0.6792906,-0.07728026,0.7774948,-0.23062709,-0.7004581,-0.3717855,-0.73339957,-0.6514942,-0.1904852,-1.3253437,-0.3807111,-0.14221987,0.79180455,0.29036888,-0.25074345,0.17812675,-0.15691859,-0.12905909,-0.5054685,0.7353453,0.38357776,0.24930121,-0.28961837,0.16082837,-1.1294031,0.61542416,-0.10839363,-0.30659598,-0.43479952,0.4900247,-0.4266979,0.1933838,0.5871032,-0.30796057,-0.7356816,-0.22595903,0.2609887,1.0099744,0.32746434,0.16498283,0.46829024,0.22593771,0.29452583,0.117329285
69,-0.8933645,-0.24277543,0.2098477,0.19008584,-0.800454,0.04994249,0.14726467,-0.078715436,-0.5018021,-0.5540979,0.59031093,-0.5742068,-0.432166,-0.11089921,0.51130956,-0.4369568,0.3138896,-0.567779,0.34621438,-0.051806837,0.49890134,0.60884196,0.13526344,-0.859965,-0.05623416,-0.44061437,0.26527756,-0.77653974,-0.24478762,0.21619976,0.17128102,-0.7870998,1.2896279,0.6605536,0.20528302,0.7570023,-0.022271631,0.71879405,-0.31645048,0.29109123,0.32854047,0.025881745,0.007946284,-0.29140484,0.61358404,-0.75214213,0.49714187,0.22471742,0.49905944,0.11213258,-0.0032566593,0.40014172,-0.2832534,0.49971366,0.050230805,-0.83144015,-0.27780044,-0.31271505,0.17694074,-0.69200075,-0.45188177,-0.5243074,-1.2635865,-0.7095272,0.028565427,-0.5358915,-0.43141377,-0.40386546,0.24798895,-0.39682618,-0.17308702,0.19279489,0.2822843,-0.3747273,-0.20234646,0.58393025,-0.2663582,0.14499083,-0.35128596,0.122956455,-0.47263557,0.22304767,-0.25400522,-0.12685016,-0.2091288,-0.1583603,-0.14405255,-0.15242757,0.71239614,-0.18908902,-0.6897965,0.31455648,0.37774798,0.3409823,0.08854006,0.22121754,0.6216502,0.378405,-0.11978749,1.1331502
70,-0.12292702,-0.94381654,-0.2303645,-0.7243584,-0.23376271,-0.5509952,0.021416752,-0.076721385,0.5078742,1.3568448,-0.15324488,-0.039593905,0.32917467,0.7287739,0.5637537,-0.36476853,-0.074605316,-0.30373275,-0.12768956,0.45475283,0.60959965,-0.32290256,-0.45008418,-0.27707997,-0.17224675,0.3421531,-0.46432042,-0.46786797,-0.33425713,0.18776736,0.031028526,0.2610178,-0.008599643,-0.16292578,0.45584947,0.33756468,-0.18830305,0.6026282,0.3842719,0.09829673,-0.7847862,0.19561712,-0.07733265,0.22546028,0.41817686,-0.213403,0.6833444,0.2810485,0.38266468,-0.5803319,1.0784605,-0.6379902,0.50879455,-0.7695631,-0.23585433,-0.7349404,-0.15683375,-0.6359338,0.4661863,0.021496145,-1.10838,-0.13447279,0.29582095,-0.20674303,-0.5242168,0.583573,0.2354436,-0.15002115,-1.071837,-0.58598465,1.0828682,0.8450579,0.2394693,-0.1947549,-0.08206655,-0.2423168,-0.3514257,-0.25062487,0.15683585,-0.7297074,0.35725245,-0.19333524,-0.14246847,0.41259885,0.3613688,-0.19859965,-0.65291893,-0.42474583,0.6334326,0.49530083,0.08605862,-0.374632,-0.4032192,0.59255254,-0.36568287,-0.2758915,0.57380545,-0.28352842,0.13267505,-0.8568984
71,0.12517405,-0.40299234,0.1019718,-0.32960442,-0.91847944,-0.15620704,0.17793252,0.30696386,0.26707488,0.7220004,-0.03429999,-0.18639316,0.3334057,0.45003113,1.2188561,0.044362992,-0.011177011,-0.4868553,0.07447259,-0.009353217,0.31932563,-0.23562822,-0.046130225,-0.48914313,0.46873796,0.30195314,-0.3741117,-0.67742914,-0.7190768,-0.023339251,-0.045401882,0.348154,0.14530657,0.11971568,1.1647227,-0.817973,0.29208365,0.5180325,0.29799843,0.28999937,-0.5769082,-0.31831917,0.09406585,0.026158033,0.23153254,0.7184713,0.1791328,0.056013882,-0.5660893,-0.19001517,0.47692662,-0.6393063,0.041283254,-0.520321,0.604601,-0.7238029,0.33033916,-0.24771643,0.75391066,-0.09536289,-0.78085506,-0.23873802,0.45852664,-0.28043258,-0.17982475,0.4374917,0.60364014,-0.24323888,-0.2547281,0.09393569,0.91579366,0.103862755,-0.014454958,-0.14623797,-0.27388057,0.1724916,-0.03935135,0.45168218,0.19205415,-0.055382907,0.10300368,-0.7013147,-0.12764063,0.49630797,0.51244634,-0.21154118,-0.19139904,-0.43303555,0.121324696,0.44747144,-0.28386644,-0.33632892,0.7215057,0.1631422,0.08975669,0.09748863,0.07155566,0.595468,-0.26081133,0.24689656
72,-0.48632473,-0.082408644,-0.15327121,-0.3618639,-0.4077335,-0.66655797,-0.12338972,-0.60626906,-0.1598471,0.29470944,0.058791433,-0.5961158,0.6929124,0.21924245,0.47776607,-0.24829173,-0.2666118,0.47020963,0.026864283,-0.18240146,0.50657445,-0.31654558,-0.060303483,0.14881644,-0.75477266,0.054094758,0.46477804,-0.3518239,0.25865394,0.012933871,-0.77492076,0.37144566,-0.24040595,-0.039160315,0.8431015,0.16168773,0.086969756,0.0884595,0.2845418,0.64950234,-0.29676068,0.6489448,-0.39433914,0.37427148,-0.4945028,0.52142435,0.21186015,0.0729027,0.38732338,0.3405367,-0.016817098,-0.0018267799,0.6478188,-0.21726178,-0.055134263,0.25021058,-0.18495284,-0.52400935,-0.18246788,-0.84684366,-0.09065569,-0.8086564,0.12569116,0.29912296,-0.62734836,0.34116256,-0.37296757,0.30069143,-0.3040941,-0.5802349,-0.368691,0.4450444,0.024144007,0.17234555,0.0115542635,-0.05372935,0.9329785,-0.22806124,-0.038812727,-0.108112656,0.032452248,-0.16045374,0.13938683,-0.6106448,0.6601499,-0.6388888,-0.101014644,0.49749175,-0.17357205,-0.3463916,0.009522989,0.04042703,-0.60166067,-0.06365265,0.65862393,0.14213474,0.37074026,-0.21552633,-0.3937039,-0.36216277
73,0.0112769455,-0.28403738,0.35985902,0.6708118,0.40103638,0.19665636,0.22526579,-0.28771225,0.25528747,-0.3068358,0.3314176,0.6313012,-0.6831259,-0.16405332,-0.15952179,-0.16667204,0.7854362,-0.14019088,0.10138655,-0.08506417,-0.3613415,0.6494276,-0.501695,0.43277523,0.3102194,-0.8811759,-0.067943305,0.4616291,0.4941246,-0.81226707,-0.19060618,-0.6568199,0.0500697,0.08958041,-0.7165997,0.015752284,-0.0006251885,-0.03348497,0.12425039,0.4114282,0.013697051,-0.0775638,-0.054832533,-0.95618725,0.8476415,-0.3097843,-0.22157596,-0.15730225,-0.52886224,-0.0679766,-0.8115722,-0.0974361,-0.5747823,0.11864287,0.7439511,-0.692018,0.04881657,0.43794978,-0.12133098,0.2562726,-0.43990478,-0.22488648,0.14675897,-0.25637785,-0.16065814,0.038176164,0.74990505,-0.08854787,-0.64150697,0.062451437,1.182493,0.018875185,-0.028752849,0.5496944,0.3083557,0.4964944,-0.39942625,0.600536,-0.74655426,0.002724116,-0.2716285,0.24408685,-0.23771268,0.74139297,-0.016594728,0.34135544,-0.47651,-0.3709837,-1.1179512,0.1543706,0.09069455,-0.51164603,0.73959523,-0.93326545,0.115682654,-0.97119784,-0.10342516,0.82500494,0.48729217,-0.2643582
74,-0.025478194,0.6008056,-0.15231249,-0.200642,-1.2507293,-0.26799986,-0.18363932,-0.3063389,0.06603324,-0.4212506,-0.022974115,0.1796593,0.03731029,0.027187781,-0.26747182,0.40203133,-1.0167785,0.09774524,0.1830758,0.12318345,0.47059557,-0.17306161,0.57876223,0.17709766,0.16464382,-0.58694303,-0.69022894,0.094198324,-0.685796,-0.21316771,-0.119382195,-0.42727828,0.1559864,0.5229444,0.07800783,0.025302297,-0.0724884,-1.1073956,-1.5650624,0.050971232,-0.4473774,0.09777169,0.09866203,0.77697545,-0.31073943,-0.002979078,-0.39203796,-0.8682449,-0.23758978,0.5719717,-0.2975529,-0.23240942,0.38511035,0.451638,0.81612957,0.11026291,0.3831526,0.5728319,-0.5368386,0.18265474,0.38851354,-1.315961,0.42978227,-0.12645908,0.6550064,-0.0073830336,-0.058442805,-0.2136854,1.4029316,0.0062801978,-0.40524885,-0.5571361,-0.17603037,1.5688548,0.4319719,0.63348,-0.10311582,0.85685545,0.029007694,0.10998171,-0.5871456,0.45884863,-0.13323009,0.044208918,-0.4772927,-0.17702025,0.43819618,-0.36175174,-0.22526017,0.4310784,-0.03235648,-0.111690074,0.68410635,-0.15712444,0.15021199,0.052854728,0.07206336,0.09021125,-0.5261794,-0.18116304
75,0.0123248175,-0.13494322,0.08609528,-0.28477767,0.0562165,0.38499817,0.38707218,0.42673424,-0.18963088,0.640635,-0.067492135,-0.24179496,0.88486904,0.19683638,-0.24669482,0.7319325,0.40866044,-1.114082,0.01600194,-0.23605713,0.21131834,-0.6923402,-0.27785042,-0.6266979,0.50384396,-0.068814725,-0.46623716,-0.59393734,-0.58876747,0.71418566,0.6841402,0.10709112,-0.07786931,0.021711016,0.45512477,-0.18066952,0.7023616,0.4179054,0.9235198,0.7178894,0.3002708,-0.9230577,0.17790294,-0.95308024,0.18076617,0.42151704,0.5684478,0.24548957,-0.0119205825,-0.44092134,-0.029037282,0.4030431,0.11989313,0.49316195,-0.025726007,-0.40325135,-0.20057341,-0.08584351,0.9043046,0.02295303,-0.74171877,0.16460474,0.27206224,-0.16736408,-1.0433434,-0.11167586,0.42645985,-0.5997563,-0.2619467,0.12986134,0.41323158,-0.39215767,-0.069245346,-0.5252359,-0.76602644,-0.27951795,0.01663568,0.28644565,0.16178465,0.5106231,0.23487592,-0.06916359,0.05128326,-0.78321886,0.8683518,-0.4448732,-0.05029794,-0.03289403,0.526032,0.21839765,-0.70300514,-0.7495079,-0.37755752,-0.52263385,0.058049075,0.19708721,-0.002562958,0.6300934,-0.42526838,0.58522165
76,-0.09602204,0.045776613,0.13857627,0.38650557,-0.16672137,-0.6667327,-0.0006166367,-0.05994337,0.13649064,0.087190054,-0.13447188,-0.40792248,-0.0072935913,-0.27684718,-0.42209876,0.09340279,0.22085032,-0.66893923,0.6971334,0.10222715,0.75025547,0.97308844,-0.1484146,0.56873035,0.21450669,-0.5763088,1.06433,-0.30083567,0.14355825,0.0062606153,-0.5777968,0.1701627,0.01278554,0.6901953,0.501178,-0.094116755,-0.09301835,-0.5034712,-0.64053965,-0.03736364,0.30942187,-0.2426758,1.0261935,0.04381156,-0.30406103,0.13755026,0.2630916,-0.31942177,-0.62350386,-0.10515016,-0.0873565,-0.5972276,0.37519473,-0.032763597,0.16984002,0.10851084,0.2228226,-0.23307902,0.15223573,-0.47735322,0.2264345,-0.72333294,-0.16574281,1.5347383,0.19211411,0.019658944,-0.081957705,-0.18949604,-0.22636311,0.42165425,0.059174642,0.2767486,0.022336787,0.42504454,0.8550308,-0.01627181,-0.023933534,0.64166284,0.070549235,0.48623314,-0.8065316,-0.17547011,-0.2598618,0.17171663,-0.7534881,-0.35316953,-0.23689088,0.18835644,-0.20934257,0.28549528,-1.4449083,0.562525,0.2573914,-1.0222384,0.14401247,1.1723943,0.39864814,0.09204333,-0.107246265,0.08574257
77,-0.025526054,-0.050055314,0.9325612,-1.1664916,1.1307789,0.2960256,-0.02206086,-0.18835902,0.90112704,0.07184669,-0.72318196,0.4419231,-0.32304597,0.49299964,-0.29682195,0.4235965,-0.04283385,-0.115042545,0.07485213,-0.26573297,0.29508683,0.0057784193,-0.068128765,-0.38062823,-0.059303295,0.17005503,0.090613045,0.4557674,-0.29282418,-0.4686868,0.017132489,0.81816286,0.08342899,0.12393086,-1.0241302,-0.2622505,0.2639363,0.014741393,0.7078926,-0.16783299,0.55589104,0.03890987,0.030856006,-0.09253758,0.21242175,-0.10914565,-0.026156366,-0.057442624,1.4085624,0.44085473,-0.015695818,0.057434067,0.66575557,0.4683687,0.16124344,-0.11796909,-0.056411117,-0.087928504,-0.055315524,0.5231484,0.034486372,0.6729342,-0.72189134,-0.090327404,0.11784837,-1.171938,0.89017165,0.3900876,-0.063024685,0.17861591,0.15476047,-0.32626772,0.8277558,0.28634197,0.35237658,0.18489893,-0.29634312,-0.2908966,0.25508857,-0.011512492,-0.29534853,0.4842691,-0.07120783,-0.3360977,-0.12408574,1.0183326,0.5735048,-0.03196304,0.13911526,-0.83162564,-0.02146047,-0.0030000038,-0.18379271,-0.16620997,0.093634725,-0.43184146,-0.4535428,-0.2367105,-0.40941066,0.6742802
78,-0.146111,0.11506778,0.23328686,0.36108014,-0.7425402,-0.6168136,-0.4902086,0.51894534,-0.31378716,-0.34413418,-0.55467916,-0.1371618,-0.23507923,-0.28023624,0.88929087,0.5456747,0.59340715,0.8232486,0.11621374,-0.704727,-0.48198697,0.64677984,-0.46974996,0.017869342,0.12768584,0.24049547,-0.11165505,0.46401924,0.14315987,-0.27619824,-0.26656768,-0.1929627,-0.33665067,-0.17348176,-0.5487729,0.78511375,-0.6785294,0.982188,-0.06804764,0.008466294,-0.32912558,0.027503502,0.37328854,-0.5077482,-0.41775253,0.023093143,0.04040884,-0.51322204,-0.55290383,0.042836905,0.18680967,-0.6652818,-0.8083493,0.5502707,-0.4421848,1.374339,1.8315709,0.107920095,-0.8223216,-0.055453938,0.11560158,0.12373637,-0.034139223,-0.26638585,-0.50666946,-0.11431159,-0.2726462,-0.7975584,0.46520868,-0.08219219,-0.4004625,-0.1383434,-0.03674542,0.6297895,-0.009101795,0.04237312,0.6832139,0.026884755,0.35037974,-0.0453718,-0.64274055,0.15441169,-0.30309117,-0.018826699,0.36557427,-0.044450853,1.3383696,-0.021310061,-0.46068293,0.0374143,-0.6174467,-0.5306761,0.6029955,0.45154345,0.11445262,0.25117546,-0.328622,0.40298915,0.45345005,0.10476531
79,-0.028789325,-0.25220612,0.3146016,-0.15561035,0.9632876,-0.31166485,-0.15582377,0.14141047,0.8661198,0.13965873,0.093279034,-0.0024552166,0.7696804,-0.066914305,0.023049477,-0.039772216,0.039070144,-0.6188537,-0.33938035,-0.18374042,-0.45736918,0.30388707,0.6381001,0.63739115,-0.0301128,0.6703216,-0.4799333,0.07521245,1.0291433,0.030350788,-0.4699426,1.0029323,0.11458827,-0.09241649,-0.13138404,-0.70657563,-0.18700977,-0.55422246,-0.16159953,-0.6855507,-0.40940058,-0.53003025,0.5592577,-0.24363673,-0.2751366,0.01667258,0.1969743,-0.5940602,-0.19966725,0.112493366,-0.33516157,-0.08235657,-0.4135522,0.09429643,1.1963236,0.9393419,0.13244581,-0.28993687,-0.1458147,-0.14717546,-0.23871167,0.49470174,1.345252,0.096548125,0.3307352,-0.1396781,-0.56314325,0.29143777,-0.25670874,-0.4591244,0.3474867,-0.058663256,0.27426627,-0.21914786,-0.03118711,-1.1880267,-0.15231404,-0.3645345,-0.28107655,0.17519198,0.3866236,0.024797808,-0.3070773,0.3467351,0.17607115,-0.24778451,-0.24532574,-0.25203317,-0.026067983,-0.2272687,-0.09395587,-0.7129791,0.18522426,0.14921592,-1.0383673,-0.52596664,0.11652215,0.22656094,0.5620717,-0.6943616
80,-0.64218116,0.20455813,1.2108539,0.63438195,0.11531183,0.20507711,-0.0871895,0.41916347,0.19223036,-0.2221736,-0.03936693,0.11016501,-0.25191143,0.28257796,-0.053001676,0.08520167,-0.36862683,-0.0028607761,-0.86072093,0.77311414,-0.17330365,0.7709642,0.5371891,0.5143044,0.2697044,0.8788714,0.2253412,-0.59395,0.78447735,0.26997945,-1.1205896,0.32475066,0.045811567,0.35467288,0.3539747,-0.66823524,0.04174148,-0.27794325,-0.060348716,0.5562219,-0.4078624,0.052421123,0.26614627,-0.55419004,0.015357829,-0.32805628,0.136421,-0.6597321,0.3350862,0.23287426,-0.2363615,0.8546576,-0.8941816,0.46261233,0.8433356,0.39290756,0.3765563,-0.16627076,-0.9732607,-0.24627377,0.15027922,0.11200978,0.37369582,0.21427113,0.47296026,0.81103337,-0.40887815,0.014600298,-0.6608914,-0.62912726,-0.30132893,0.26702818,0.1666019,-0.32289866,0.18669811,-0.59607834,-0.81952965,-0.6327738,-0.03112525,-0.18637161,0.85048693,-0.5283512,-0.12426154,0.2765823,0.58820367,-1.1980113,0.033951983,-0.39444664,-0.36098206,0.83264875,0.46978286,0.46050754,-0.17448944,-1.1244675,-0.62759566,0.33963826,0.15611687,0.06760922,-0.08720501,0.12614213
81,0.056384657,-0.63891137,-0.7066131,-1.119371,-0.3742003,-0.3151475,-0.6735124,-0.34934178,0.19848739,-0.20832051,0.24992782,-0.5454285,-0.0023409869,0.23245253,0.50113606,-1.4589338,-0.55059147,-0.19442545,0.3556092,0.56072944,0.100316614,0.25642374,0.1246919,0.32686684,-0.8390433,-0.36953452,0.17562549,-0.5912617,1.281889,-0.9454393,-0.514799,-0.23209272,-0.44330242,0.61375916,0.41088757,0.63873094,-0.5258728,0.23981239,-0.60411316,0.4434998,0.20615609,-0.4465286,-0.006200302,0.1774309,-0.5698092,0.3072453,0.0393129,-0.1462827,0.04954575,-0.24170278,0.37191308,-0.38917708,0.2138691,-0.7402109,-0.0033181594,0.3262157,0.079616114,0.54451114,-0.59748566,-0.26091427,-0.080775365,-0.46672082,0.28237,0.23857482,0.08014485,0.18133567,0.12571244,-0.24829587,-0.21554218,-0.065047465,0.1923533,0.84512997,-0.61251897,0.14491242,0.73147017,-0.563956,-0.47633153,0.23752815,-0.18213645,0.384816,-0.7928707,-1.0291696,-0.33560613,0.08249773,-1.0659496,0.15647466,-0.29479378,0.13094862,-0.021162344,-0.75670403,0.13201243,0.010909696,0.051045496,-0.9317333,0.11850683,0.3203376,-0.22005537,0.5701022,-0.26058334,-0.5417444
82,0.44727242,0.3027625,0.024856992,-0.0542742,-0.59308165,0.7456238,0.004525802,-0.19234423,0.42804933,-0.5990265,0.9421059,0.24052972,-0.24475771,-0.20715043,-0.12542285,-0.6009403,-0.3582928,0.14918686,0.88916224,-0.008810788,0.1631225,0.079676926,0.8548436,0.031366967,-0.011665347,-1.2986389,0.0050611147,0.08518056,0.7818534,-0.674866,-0.045265447,-0.16845493,-0.06464178,0.6363271,-0.58207875,0.29090026,-0.5068726,-0.4854918,-0.59501797,0.6067654,0.9555597,-0.95170397,-0.033066284,-0.033926915,0.0077981777,0.12531224,-0.726673,-0.21665694,0.17670292,0.8300202,-0.083241075,0.06939531,-0.32218608,0.3643553,0.59729123,0.9244664,-0.08817507,0.93746406,-0.8296343,0.29163122,0.655806,-0.3420528,0.10392822,0.13138704,0.46703854,-0.20535389,-0.1533498,-0.14829768,0.9153924,0.36890647,-0.14573076,-0.26508936,-0.2995728,0.5786056,-0.11729857,-0.3970948,-0.4259706,0.37773752,-0.081339195,0.33652052,0.19646093,-0.26380792,-0.8447533,-0.0060360963,-0.5527513,0.61060005,0.07153998,0.09026698,-0.5494573,-0.46926254,0.22596408,0.16841199,0.50807154,-1.2240773,0.510978,-0.020204097,0.08237387,0.35772672,-0.42645058,-0.22751601
83,-0.49873376,0.2925626,0.7987692,-0.47699493,0.22952472,0.4188139,-0.64383215,-0.63353926,-0.044239737,0.17414635,-0.20740035,-0.2776229,0.26941782,-0.8598604,-1.0790144,-0.047676876,-1.115963,0.0690843,0.41256678,-0.35060814,-0.23687279,-0.20876928,-0.3122042,0.014291462,0.27508402,0.51964104,-0.7347275,-0.4326124,-0.024137141,-0.5729817,0.07491683,-0.47457355,-0.5191913,0.43032563,-0.21618718,-1.1426147,0.009174117,0.06919319,0.56609756,0.69473463,0.081621125,0.33013573,-0.742159,-0.24971543,-0.6000161,-0.49822837,-0.26800913,0.48855105,0.02873937,0.029161312,0.12098392,-0.15164223,-0.1619169,-0.23569103,-0.50462633,0.5236712,0.4098666,-0.18630655,-0.1388891,0.028386861,-0.007326828,-0.6779765,-0.09846473,-0.15111434,0.5625728,0.49617213,-0.6474396,0.18491834,-0.07375641,0.37386993,-0.35576355,-0.32338157,-0.1854929,-0.2610395,0.14149588,-0.08694308,-0.19275494,-0.13082883,-0.36622468,-0.19198447,0.20092766,-1.0912005,0.590074,-0.009091548,-0.0874096,-0.19563633,-0.6807803,-0.32900187,-0.46690091,0.032177944,-0.0068722838,-0.26698902,-0.6552156,-0.016425353,-0.7716857,0.78426754,-0.40569592,-0.23948431,0.76698387,0.019168032
84,0.17713389,-0.0547377,-0.89307606,-0.17899325,-0.6016875,0.18138869,0.6251194,0.70566434,-0.013090148,-0.031003976,0.23104732,0.09512909,-0.061656762,-0.17540897,0.57278156,0.18638906,0.70094174,-0.36844894,-0.1948297,0.09713916,-0.008482101,0.03146857,0.21664351,-0.22864126,-0.1683045,-0.45542023,0.57394814,0.6568539,-0.35592777,1.3094935,0.061418068,0.44933173,0.4663193,-0.6153801,0.25673366,0.44795558,-0.28914437,-0.31425038,-0.90846753,-0.71952516,0.017463977,-0.19334382,0.40478775,0.23391184,0.73048073,0.41906095,0.025816483,-0.2922117,-0.053962093,0.49249542,-0.092777595,1.560626,0.23806095,0.052120674,-0.15983497,-0.89155453,-0.82385266,0.045599546,0.4292339,0.0846062,0.13439381,1.08227,0.54906344,0.6881252,-0.36212128,-0.8680764,0.08790866,0.49009255,0.058455553,0.10263712,0.6485093,0.2788813,0.14833038,0.5120635,-0.09089995,0.24344958,0.18794508,-0.022933148,0.46787754,0.0069964514,-0.1906425,0.7887134,-0.7897701,0.3488341,0.32490215,-0.34517646,0.5835176,0.41713056,0.60548973,0.3052657,0.026637705,0.21975812,0.230214,-0.563975,0.52132577,-0.89223164,1.0840094,0.2635197,-0.894159,-0.4836497
85,-0.17074002,0.31380183,-0.9518711,1.1345322,-0.9532701,-0.2069521,0.7344142,0.18486454,-0.035260607,0.15127525,0.038353484,-0.10271967,-0.5537483,0.28113133,0.15291607,0.3789599,-0.3841503,0.75311494,0.070304334,0.8406819,0.051726453,-0.56494594,0.5845833,0.36751145,0.65606666,0.3047354,0.6010475,-0.07289188,-0.05215308,0.011249437,0.72164726,0.62475395,-0.7214013,0.4401974,0.27902037,0.28284022,0.31215036,0.07420843,-0.050797787,0.56012565,0.38176188,0.3338258,0.008926521,0.6892895,-0.4906797,0.51537377,-0.1343246,-0.58761775,-0.41927212,-0.33771807,0.0054133334,-0.46668887,1.049395,-0.30668372,-0.49133423,0.08550305,0.34896,-0.028750343,-0.19253169,-0.20843363,0.6551854,-0.013894486,-0.19147502,-0.24198507,0.49906555,-0.7442609,-0.25465137,-0.19584352,0.20533234,0.31349298,-0.4425943,-0.16909423,-0.27354965,-0.14513843,-0.41963738,-0.6537539,1.4825681,-0.20086509,0.51092273,0.13727334,0.748391,0.06932049,0.5883065,-0.45426545,-0.059203498,0.42407772,-0.08491943,0.36982137,0.3165696,0.18413016,-0.2649431,0.63235724,0.24504887,0.22199285,1.0939474,0.112196565,0.12868902,-0.96643364,-0.19287357,0.67749035
86,0.86117905,0.15617913,-0.53770405,-0.13561697,0.41024473,-0.50843936,0.38516146,-0.14043641,-0.23152328,-0.24770373,0.6290454,0.42880636,-0.19669135,-0.49504974,-0.16819853,-0.010679893,0.469696,-0.2551273,-0.07145848,-0.030564439,-0.78540623,0.09230063,-1.0970781,0.5690763,-0.74060994,-0.54545045,0.14751907,-0.28274044,0.073876105,-0.8921946,-0.40839604,-1.4419541,-0.37188,0.31699067,-0.025072906,0.14720848,-0.7759319,-0.12017686,0.9045651,0.82493347,-0.5556992,-0.026086854,0.102402516,-1.2052999,0.29543987,-0.1039039,0.046461847,-0.018756839,-0.17154649,-0.04437718,-0.53691596,-0.38502797,-0.14659104,-0.4985639,0.9635651,-0.6958009,0.3267961,-0.48509052,-0.015508267,-0.14855178,0.35140416,-0.11238104,-0.39828143,-0.3944654,0.35291746,0.07213746,0.058535084,-0.20441788,-0.6250184,0.07236341,0.5055785,-0.87051874,-0.27517718,-0.04207796,0.5887881,0.21843477,-0.06784439,-0.26506567,-0.48310304,0.106796734,0.5575567,-0.098423295,0.1627306,0.038979452,-0.27630866,0.053595234,-0.29363024,0.013135672,-0.70775634,-0.1379321,0.2803958,-0.64160484,0.19504994,-0.66573435,-0.06109453,-0.27731863,-0.13052677,0.5887161,0.018058702,-0.55473506
87,-0.5075518,0.22402479,-0.09715204,-0.41361964,-0.2149198,-0.050166,-0.025449768,0.8215366,0.46658632,0.08599084,0.028919734,0.37145522,-0.9908014,1.2245238,-0.1636365,-0.004518153,-0.02365501,0.028809413,-0.11100948,0.69945097,-0.3175598,-0.061802812,0.5665711,0.18372416,0.037131354,0.2011464,-0.11426509,-0.055658136,-0.16325974,-0.8358014,0.58995444,0.65036863,0.11676135,0.18065669,0.7455624,0.06520852,0.1342022,0.3616274,-0.049769733,-0.13127981,-0.25963956,-0.10008652,-0.48069108,-0.7877908,-0.42729878,0.35657123,0.54806983,0.37171224,0.38425437,0.5349522,-0.7935493,-0.237217,-0.16944294,0.04536477,-0.15808645,0.11986084,0.1950742,0.19548033,-0.2571753,0.47132233,0.03922225,0.7464619,-0.54748446,-0.90319043,0.4235407,0.235856,0.40900904,0.1316292,0.046426382,-0.1371054,-0.20315082,-0.3917034,0.8606897,0.21144652,0.37496942,-0.7555598,-0.4263154,0.6762212,-0.42258176,0.2546089,-0.024158608,-0.71487975,0.106209606,-0.035898883,-0.14254318,-0.09313907,0.38661417,0.3340705,0.16480318,0.0885371,0.23623073,0.0048077554,0.14128722,0.0058521517,0.66581476,0.09820282,0.51499385,0.10473393,0.17090504,-0.0066733016
